楼栋号 -0.017695272 0.0716534 -0.36872008 0.19352974 0.13623007 -0.054887075 0.03271123 0.13859917 0.049976114 -0.031351678 0.03372535 -0.10013493 0.06796088 -0.33578005 0.13859431 0.06366205 0.007145097 0.0140893515 0.16172434 -0.06701397 -0.089086294 -0.32450837 0.10622024 0.13435264 0.19401239 -0.005271236 -0.22284666 0.006313836 0.19850394 0.122638375 0.27176154 0.23047204 -0.053115882 -0.13468874 -0.1602684 -0.14302447 0.086579815 0.053560905 -0.18469033 0.06720414 0.04712502 -0.091930196 -0.006560459 0.051108126 -0.0547328 -0.14584263 0.048075404 0.13812202 -0.117574304 -0.25400347 -0.14169389 -0.020276861 -0.040355686 -0.32935113 -0.07548875 -0.057293598 -0.064920865 0.0885703 -0.015635727 0.1620075 -0.13485795 -0.32472453 0.21952292 0.087412946 -0.05677256 0.27084887 -0.008114243 0.20972724 0.09066855 -0.07192254 0.015591486 -0.13499774 0.03855358 -0.012877529 0.12377544 -0.079910465 0.22303972 -0.062302526 -0.13676769 -0.29001254 -0.14516068 0.0020435236 -0.22858946 0.18037651 0.084267706 -0.1990122 -0.07529134 0.03656483 0.061018363 -0.21452612 0.14234653 0.020599928 -0.043160886 -0.16595763 -0.022565152 0.12188483 0.3037769 -0.11567554 0.19132397 0.043649666 0.099739164 -0.1695938 -0.14251274 -0.028592113 -0.007906427 -0.08270266 0.024629842 -0.23034893 -0.06528939 -0.09611282 0.11170374 0.3445249 0.2298776 -0.054691926 0.16158132 -0.14010023 0.1264933 -0.2990023 -0.16307168 -0.043449517 -0.07274191 0.1435449 -0.13142714 0.046391975 0.1212013 -0.25194547 0.085348964 0.07414707 0.15591459 0.26837355 0.057940405 -0.22743756 -0.10580876 -0.018284949 0.062339805 0.28010455 0.10229855 -0.13614435 -0.14387485 -0.031593356 0.11154694 -0.046214268 0.07746114 0.09265714 0.113724254 -0.14521456 -0.055407163 0.030681286 -0.19262497 -0.23533991 -0.17151535 0.17517565 0.03819752 -0.1778064 -0.21103124 -0.01721379 0.021093719 -0.03161389 0.10585473 0.25906453 0.029568445 -0.16766797 0.10645014 -0.066253796 -0.11001958 -0.026160765 -0.10377178 -0.051814377 0.1014969 -0.16634278 -0.021368075 0.071218945 -0.07928416 0.014983917 -0.00024100768 0.041332442 -0.18085268 -0.02172032 -0.04382695 -0.12913217 -0.010526208 -0.098348066 0.011811911 -0.0048789047 0.06004558 -0.17249848 0.12154061 -0.00084173796 0.20711179 0.078607954 0.24280214 0.15102765 0.08566873 0.12394397 -0.089760475 -0.1532343 0.18228945 -0.20242901 0.13342288 -0.15849747
公司 -0.120980404 0.011571568 -0.059296194 0.1451736 0.04312533 -0.14345819 0.043527722 0.20801365 0.022493485 -0.08639535 0.005537096 -0.10904374 0.13184327 -0.059468005 -0.03878103 -0.019525705 -0.17882976 0.15027939 -0.03665374 -0.054171246 -0.16690941 -0.26185188 -0.002826203 -0.17962655 0.10501732 -0.14473794 -0.21507111 -0.057993095 -0.022052549 0.16290995 0.012053902 0.13425763 0.005603924 -0.08957042 0.10657133 -0.07534571 0.05192762 0.08370382 0.105389506 -0.12910794 -0.12560242 -0.23479563 0.22538665 0.036946874 -0.21107663 -0.17153595 0.24606898 0.19577628 -0.08556867 -0.040333297 -0.14030138 -0.056537576 0.13551104 -0.05442998 -0.041707143 0.07749667 -0.06279462 -0.118527345 -0.010230764 0.17940547 -0.29306623 -0.14713658 0.16390385 0.116676785 -0.07794568 0.078430764 0.054365736 0.08605978 -0.013374026 0.103226714 -0.10762755 0.0053966795 0.18411545 -0.098530926 -0.0071882554 -0.1793097 0.14071126 0.11135242 0.14235337 0.05295402 -0.10673028 -0.22143199 -0.2305767 0.19754149 0.16925158 -0.08836269 -0.17871623 0.11128177 -0.13725962 -0.12788424 0.18001895 0.038776197 0.02570162 -0.048774093 -0.08742951 0.22913478 0.031328678 -0.07422359 -0.06727695 -0.0029813342 -0.10567723 0.15266593 -0.16979726 -0.20120049 -0.033023708 -0.12314649 0.10033074 -0.18781543 -0.021585114 0.040089406 0.10129797 -0.09243835 0.19079407 -0.27566454 0.042928334 0.24237007 -0.010275094 0.007850939 -0.2757456 0.04923969 -0.015765619 0.22177234 0.048107322 0.37963888 -0.014175698 -0.022053834 0.15047869 -0.113238096 -0.15344001 -0.14339301 -0.13718192 0.10887926 -0.005989007 -0.10322295 -0.06827908 0.17803499 -0.13267523 -0.023757724 -0.17093079 -0.15524325 0.10447497 -0.07798528 -0.0019882636 0.13322558 0.15189622 -0.10302506 -0.0712166 -0.09591664 0.006387903 -0.028736241 0.20875672 -0.11429598 0.1938648 -0.097030416 -0.1788288 -0.05772463 -0.049988203 0.07631166 -0.026639443 0.13026202 0.18739073 -0.008551486 0.082116306 -0.030865544 0.027655652 0.25098208 -0.18419479 0.024338316 -0.10336164 -0.009416328 0.045453392 -0.043359287 -0.14811972 -0.013625783 0.1167997 0.19445552 -0.1122568 0.28500363 0.15741655 -0.16405441 -0.0026443584 -0.12712334 0.0124510005 0.0715164 -0.03948265 -0.017785162 0.26011786 0.0011234634 -0.0634762 0.020774223 0.045592815 0.19895074 0.13481514 -0.0054478925 -0.19655974 -0.16038327 0.1576261 -0.033837944 0.10304558 -0.1987168
中餐厅 0.080053695 -0.17676504 -0.0874729 0.3024354 0.07131855 0.07175706 0.25462532 0.09319723 0.103818335 0.13903348 -0.060835138 0.005657577 0.0063377195 -0.22936592 0.006739255 0.22341084 0.011614749 0.08158937 -0.0120112905 -0.25534084 0.12598538 -0.24073264 -0.01898361 -0.08082191 0.2747561 -0.019624516 -0.090066224 0.016837211 -0.034785293 0.076585226 0.08532559 -0.03792736 0.14012219 -0.27885705 0.04069397 -0.14150028 -0.07709297 0.0902618 -0.12066707 0.063543975 -0.15880227 -0.16656539 -0.04628488 0.10560692 -0.21933334 -0.051812068 0.025465364 -0.00029020698 -0.16438639 -0.064877965 -0.25269124 0.026924498 0.25583005 0.1964905 0.19156948 -0.02781262 -0.03262184 0.01961225 0.11083689 0.21076232 0.065494135 -0.18427345 0.13359566 0.056596752 -0.21509868 0.024003685 0.28423333 -0.016934915 0.102535225 0.118659504 0.023984596 0.023183351 0.04630936 -0.09862305 0.07224192 0.020592382 0.046421215 0.10413244 -0.08756439 -0.015936814 -0.030969102 -0.1798447 -0.06615961 0.15019181 -0.08062399 0.07941072 -0.05143193 -0.14843687 -0.07351486 -0.24137066 -0.017411258 0.07912381 -0.100535914 0.17148967 0.20598695 0.14260365 -0.0044685747 0.07711399 0.14925675 -0.06322112 -0.05383226 0.36795062 -0.18201879 -0.008105065 -0.022109909 0.09205596 0.16272917 -0.2668803 -0.24563208 -0.24014638 0.05349884 -0.012342289 0.17970696 -0.10450526 0.08574093 0.12784812 0.17426708 -0.16661422 -0.14577748 -0.32616985 0.14894685 0.13248722 -0.17687078 0.1301975 0.13137576 -0.08285005 0.061855458 0.36818895 0.057970792 0.34330252 -0.13001846 -0.20850246 -0.20393217 -0.04696448 -0.12701784 0.032069333 0.13844961 -0.09479052 0.08303335 -0.061267644 0.02594449 0.006885961 -0.057209805 -0.0063105836 0.118127756 -0.09945521 -0.22962815 -0.121803366 0.10580049 -0.11447554 0.1096443 0.04361516 -0.1512306 0.06658569 -0.26277983 -0.064062595 0.06866812 -0.092351854 0.13246599 0.036275 0.02221276 -0.15892424 0.07162068 -0.10951114 0.07220812 -0.07310856 -0.08052909 -0.022543026 0.08754821 -0.16577898 0.09618061 0.17181446 0.17788687 0.08748996 -0.13110322 0.17212164 0.076929666 0.106049255 0.06960299 0.07087706 -0.08688884 -0.07272901 0.033598676 -0.062948175 -0.07070725 0.06596892 0.22679947 0.1443562 -0.17570736 -0.0427263 0.07350276 0.35307905 0.109972 0.05449555 0.11438999 0.0349617 0.15701242 -0.09424252 0.11077434 0.053736113
充电宝 0.39427856 -0.188678 -0.14374995 0.32071593 0.07828033 -0.007673494 0.017201427 0.2340508 -0.040705632 0.0651882 0.08812257 -0.17564917 0.0016419326 -0.071879975 0.09642967 0.104399405 -0.05112312 0.04516443 0.14583929 -0.2353692 0.16200025 -0.15128851 -0.029923238 -0.1717572 0.35550228 0.12354539 -0.20501263 -0.0051210867 0.06425981 0.011846165 0.019780582 0.07997195 0.071135506 -0.05633678 -0.14545469 -0.26396045 -0.12849516 0.016579172 0.04385606 -0.10043759 -0.2762012 -0.14012013 0.044188976 0.068700634 -0.2704812 -0.010865923 0.044683967 0.29405683 -0.10868575 -0.030212563 -0.145106 -0.018183775 0.13134083 0.010112836 0.17177978 0.042304236 0.0036113092 -0.008491541 -0.004632187 0.107727796 -0.034134503 -0.14664273 0.0024598588 0.028054927 -0.12887499 0.034781713 0.20257954 0.044886567 0.22520068 0.20063432 0.04372514 -0.0027669454 0.14783911 -0.20228343 0.14143904 -0.019254887 0.06095551 0.037224308 0.115450904 -0.06157963 0.11804341 -0.16490263 -0.12531272 -0.084764786 -0.022998301 -0.032045644 -0.16415423 -0.035045326 -0.18035875 -0.23797104 -0.09830156 0.115796134 0.03370213 0.1724442 -0.09099858 0.18201692 0.002324638 0.08524807 0.01956821 -0.07221267 -0.07353483 0.14415036 -0.11419768 -0.09978739 0.0512826 0.027018543 -0.0048397155 -0.14468822 -0.08540312 -0.21711169 0.013546115 -0.056885947 0.06570894 -0.09518847 0.019367527 0.02935169 -0.046906255 -0.099217154 -0.22934623 -0.2836895 0.02607448 0.044961993 0.043109454 0.20261401 -0.03581876 0.09406693 0.14786668 0.40357324 -0.0147541305 0.18124236 -0.23904943 -0.20979634 -0.06393228 0.10385547 0.032415014 -0.061846096 0.019633183 -0.09653195 -0.000762125 -0.10052368 0.14572129 -0.0841983 -0.09937851 0.10187353 0.04562835 0.0028168447 0.022199001 0.012806115 0.04649076 -0.14159338 -0.091964066 -0.21991651 0.0014495358 -0.057269093 -0.1901158 0.029329387 -0.023246538 -0.013894149 0.07819523 0.08861771 0.018596267 -0.050936174 0.15657546 -0.16064762 0.1719048 -0.018329345 -0.14900732 0.11165717 -0.09846883 -0.11527507 -0.117633834 0.093915336 -0.031501055 0.18403824 -0.07779224 0.19719166 0.00517378 -0.015013219 -0.06824773 0.10502951 -0.030684639 -0.13232796 0.03377833 -0.17308886 0.18901062 0.006541401 0.21483174 0.10636598 -0.117293365 0.036306914 0.040700994 0.23954582 -0.10617762 0.17946301 0.2018062 0.015074237 0.1275086 -0.2361584 0.17685041 0.10739025
生活服务场所 -0.014487997 -0.15316989 -0.039990846 0.2897035 -0.06693773 0.033889137 0.05622311 0.29308584 0.009380313 0.09035602 -0.1208958 -0.24616677 0.12062237 -0.2277703 0.11886933 0.08977897 -0.16688524 0.13849866 0.13081633 -0.0410374 -0.042866267 -0.22688034 0.1379185 -0.01721874 0.040483072 0.09863991 -0.15415509 -0.019729404 0.00894227 0.14121252 -0.017044695 0.13931407 0.04406179 -0.26949704 0.0086487355 -0.1601276 -0.033472728 -0.09501947 -7.9304145e-06 -0.0126044005 -0.08436322 -0.01987859 -0.06299571 0.0120772375 -0.086340636 -0.1579222 -0.008482354 0.04270102 -0.1320885 -0.03340504 -0.21835203 -0.030701196 -0.040984403 0.01305367 0.015859699 0.05526996 -0.16271847 -0.030410662 -0.017805219 0.021691881 -0.07415685 -0.15544358 0.022306036 0.025185144 0.01832083 0.121505015 -0.07730482 0.025340755 0.08682581 0.046275094 -0.1124114 -0.024167823 -0.003177565 -0.15629616 -0.04367201 -0.13714452 0.21902527 0.050894313 0.078838125 -0.027506083 -0.07141968 -0.23893419 -0.114397 0.016255708 -0.11593401 -0.18177983 -0.04680488 -0.09412303 -0.09271001 -0.1047582 0.032377906 0.024803638 -0.041801944 -0.076701105 -0.17355648 0.19090445 0.085171126 -0.085088775 0.08209585 -0.054327004 -0.040662758 0.169518 -0.16373898 0.0124774175 0.018410984 0.06796745 0.104510866 -0.19358443 -0.04022315 -0.02677203 -0.14042209 0.16602595 0.24599567 -0.0253997 0.0033798679 0.08837488 -0.041763287 -0.03613048 -0.21454085 0.10702836 -0.010663234 0.16214411 -0.06526376 0.14202365 -0.08740886 -0.15022111 0.06289995 -0.034438442 -0.14263926 0.01841805 0.11381392 -0.10476183 -0.17204714 -0.10372677 -0.09933796 0.16146803 -0.16302088 -0.23832385 0.018637003 0.0030257197 0.26431188 -0.23300911 0.12423957 0.19305791 0.16373101 -0.14574175 -0.09988263 -0.028213471 0.077425316 -0.14909312 0.07957821 -0.08949497 0.038975947 0.0023379358 -0.21105435 0.05500806 -0.100076325 0.043861 -0.0021964528 0.0648237 0.054896545 -0.18195374 0.21476758 -0.111716375 0.073576495 0.08608926 -0.2621789 -0.17589764 0.10785326 -0.027058298 -0.052046724 0.058957513 -0.0072957966 0.11885795 0.033731367 0.04034564 -0.057517946 0.13647552 0.027715031 0.033961132 0.026420439 -0.014961367 -0.09424707 -0.025723075 0.09377857 0.051660154 0.19931118 -0.033903252 0.076255836 0.009571694 -0.00069675816 0.055774268 0.05140167 5.0483497e-05 -0.13922133 -0.16391346 0.10516407 -0.12494497 0.13776802 -0.2079922
美容美发店 0.17938557 -0.17992868 -0.16823901 0.30033833 0.051055424 0.10217001 0.07543629 0.32909685 0.056664694 0.041830234 -0.20092131 -0.034545697 0.09030987 -0.0891342 0.1446202 0.06930449 -0.058246825 -0.01052857 0.12125698 -0.287622 -0.08255804 -0.21158665 -0.05578927 -0.09926055 0.09382097 0.084484704 -0.19516607 -0.029802095 0.103182115 -0.023568092 0.04860277 0.028929502 0.11747357 -0.32070452 0.08897062 -0.161675 -0.023517448 0.18462496 0.0285903 -0.17010795 -0.20462997 -0.05769342 0.29303083 0.11748402 0.037718218 -0.12231604 0.06403289 0.057267983 -0.07771009 -0.05075379 -0.2989914 -0.00044763013 -0.07875037 0.13423362 0.033099324 0.03772017 -0.21568593 -0.12191757 0.088751346 -0.004176062 0.04740123 -0.2669461 0.11669177 -0.010496318 -0.19556014 -0.10994188 0.04254584 -0.021891452 0.16833562 0.15850295 -0.09793919 0.05117289 0.10992092 0.045798965 -0.15732037 -0.1317845 0.15282601 -0.011159766 -0.029594785 0.07004261 0.11743833 0.008443066 -0.25978872 0.042026132 -0.012745991 -0.15953448 0.043313317 -0.11210672 0.003288225 -0.1567948 0.09729266 0.34930316 0.003413929 0.14215524 -0.026219133 0.3397905 0.13490084 -0.006756979 0.04202695 0.07330861 -0.39717206 0.06858927 -0.070975274 -0.0070606354 -0.073108904 -0.015845079 0.047339283 -0.29926804 -0.09345421 0.0860121 -0.035519462 0.20874539 0.089565374 -0.04337363 0.27517322 -0.15309893 0.048818715 -0.16883956 -0.22478254 -0.074365556 0.21138972 -0.041749127 -0.098924726 0.09019408 0.08797114 -0.16765141 0.09895468 0.12885776 -0.014518232 0.11900099 0.005598225 -0.1174062 -0.07617076 -0.067961335 -0.080756396 0.12674515 -0.09608117 -0.26607364 -0.18738882 -0.18060982 0.20982353 0.063327566 0.21340978 0.0029245184 0.065940805 -0.15654938 -0.15177427 0.043009814 0.22974244 -0.21664225 0.04734097 0.03785309 0.07348083 0.010854872 -0.074139014 0.14184608 -0.1795351 0.16820118 0.12700687 0.25436515 0.06355895 -0.056437626 0.24934523 -0.083804026 0.17440158 -0.0737297 -0.036872316 0.27834693 -0.039107256 -0.06898595 0.05783489 0.16106577 -0.01827097 0.024172159 0.122788996 0.12614127 -0.077454835 0.23118009 0.0023265856 0.019474955 -0.12991248 -0.05692786 -0.06225406 -0.029927284 -0.052237213 -0.11391587 0.36663345 0.08481788 -0.072465874 0.07489396 0.073714234 0.207361 -0.091482334 0.052623805 0.14807385 -0.04520239 0.23614073 -0.27520478 0.21137097 -0.14902297
餐饮相关 0.07847462 -0.16677563 -0.0634352 0.27027497 0.16078573 0.025732871 0.15293951 0.2698031 0.11786242 0.029769132 -0.0025323357 -0.10498566 -0.03891021 -0.06613352 0.013598302 0.17715584 -0.08180466 -0.03403627 0.1247973 -0.22253005 0.13279237 -0.19801858 0.076178305 -0.18209404 0.2786714 -0.026273428 -0.054663617 -0.07134327 -0.034361567 -0.03713782 0.14029396 0.15941182 -0.059270862 -0.17433304 -0.020117177 -0.24188937 -0.046032306 0.03931973 0.040314637 0.0076878727 -0.0871561 -0.120925985 -0.028463207 0.068572424 -0.12118542 -0.110086106 -0.0862233 0.034900434 -0.042075936 -0.050188005 -0.266037 -0.105283655 0.2525135 0.26152447 0.07789569 -0.06715309 -0.01632993 -0.035177656 0.08831486 0.14286749 -0.037391603 -0.042525493 0.23001087 0.056071162 -0.1468864 -0.19644845 0.189161 0.084054805 0.20600687 0.28311476 -0.0032020484 0.050606072 0.13371482 -0.0022910112 0.13728131 -0.012571322 0.114054106 -0.0672288 -0.038291954 0.01529427 -0.0874359 -0.22907841 -0.124733984 0.17085986 -0.056318965 0.023373447 -0.057965938 -0.12915803 -0.03839763 -0.18010199 0.057887934 0.07854618 -0.14535697 0.1954619 0.048584584 0.15524267 0.13245091 0.05401209 0.14098392 -0.057855062 -0.16121222 0.2116554 -0.15582456 0.006773953 -0.090785794 -0.10758965 0.04736792 -0.1366724 -0.21652184 -0.18061365 -0.029097093 0.014384022 0.19961722 -0.24537823 0.0070461775 -0.043093026 0.2555523 -0.1452056 -0.14610387 -0.1069312 0.22797824 0.26830906 -0.012498032 0.20110168 0.10913214 0.0053690276 0.100415215 0.26420105 -0.06972365 0.350615 0.0041015497 -0.29094183 -0.35791877 -0.11116907 -0.05973702 0.027983699 0.19517578 -0.029576568 0.12449332 0.048844386 -0.04986349 -0.02605199 0.024683824 0.10244194 0.0980053 -0.065798074 -0.19259152 -0.10416296 0.21015978 0.045702834 0.13072784 0.097677 -0.07985772 0.081862204 -0.25140268 0.012626507 0.009960384 -0.10473259 0.09049482 -0.023233356 -0.038682166 0.021440897 0.06479735 -0.063271455 0.06764741 -0.06698291 -0.02576154 0.06913735 0.11984385 -0.07009052 0.13340895 0.20624542 -0.012838049 0.32992348 -0.17385608 0.17271227 -0.005403718 0.14034137 -0.039150234 0.112039976 0.06604603 -0.015641885 -0.0015204058 0.0463396 -0.0358745 -0.06457926 0.03088978 0.12379471 -0.059488468 -0.030170895 0.0028132882 0.26261833 0.04483357 -0.016719043 0.0691032 -0.07375186 0.1567455 -0.18116143 0.09308253 0.032315843
培训机构 0.2158632 -0.17308345 -0.083546035 0.10030188 0.0018090368 0.027416546 -0.029049227 0.24815941 -0.0818228 -0.05795287 -0.05070459 -0.12362692 -0.11834331 -0.23255469 0.2886965 -0.06580443 0.010952897 0.0029826586 -0.03771427 -0.26933098 0.008140991 -0.25085068 6.30789e-05 0.15633722 0.203943 -0.043516207 -0.37636724 -0.04326234 -0.033215694 0.13911186 -0.03565758 0.10951655 0.13101572 -0.1669783 0.001733421 -0.279332 0.023032926 0.04298407 -0.02908342 0.1233486 -0.19624951 -0.15538129 0.1135719 -0.05594057 -0.040115133 0.048046123 0.21815225 0.044682615 0.07180901 -0.07987263 -0.16292386 0.0820217 0.017280903 -0.103840604 0.022798017 -0.055966318 -0.03120306 -0.10767074 0.05371997 -0.0054925783 0.05732017 -0.2030034 0.14484158 0.12934437 -0.1129704 -0.04158857 -0.12396496 -0.0065597678 0.021843564 0.19679244 -0.14116858 0.04824434 0.16785224 0.033716608 -0.10165949 -0.03765313 0.18756722 0.05960896 0.17857969 -0.17121698 -0.0139272455 -0.19479018 -0.18256073 0.29219472 0.052176055 -0.17255084 -0.17275557 -0.06845096 -0.05061819 -0.11359595 0.1634932 0.08351351 -0.18342033 -0.0032047578 -0.09953529 0.14500588 0.06701625 0.027145201 0.08475894 0.06347517 0.0158258 0.043499816 -0.06495312 -0.13928193 0.079542086 -0.20448169 -0.016331729 -0.30080625 -0.24554896 -0.09675008 0.029066851 0.18578829 0.2028008 0.014090343 0.17634517 -0.14359489 0.089582436 -0.122191906 -0.14973086 -0.016298156 0.008551516 0.09964182 0.023827445 0.14069754 0.0019894037 -0.042556826 0.05758828 0.05630488 -0.03682946 0.066404216 -0.0044246153 0.07474351 -0.21514319 -0.18366042 -0.01794408 -0.011381651 -0.16818748 -0.33784673 -0.17343874 -0.088363215 0.17883062 -0.046829697 0.04835373 -0.025533777 0.016223649 -0.06393703 -0.23873562 0.050471663 0.050381336 -0.07826599 0.078709096 -0.1511158 0.0060409172 -0.113952704 -0.17592552 0.15550844 -0.01801975 0.17702062 0.10643535 0.24138427 -0.043111954 -0.010725147 0.0828319 -0.043093238 0.008582606 -0.14086166 -0.15929909 0.1270435 -0.07477789 -0.010875829 -0.17261046 -0.1229111 -0.18000974 0.13034835 -0.08262271 0.21769929 -0.13207625 0.11113781 0.21140589 0.0679391 0.073605165 -0.22994007 0.078975685 0.18641618 0.13163717 -0.09206755 0.21417823 0.029990917 0.10134429 0.04887407 0.14689022 0.05288624 -0.033193775 0.14850733 0.07076924 -0.13517618 0.36146992 -0.12393312 0.18454231 -0.06268283
购物相关场所 0.077237606 -0.064162634 -0.14883915 0.14605059 -0.12342079 0.1356673 0.083206125 0.27505073 0.031513542 -0.017509902 0.017383879 -0.18471572 0.16323908 0.03374145 0.12903161 0.079499036 -0.10019377 0.07436971 -0.105465986 -0.30083692 0.14984408 -0.15372743 -0.13851361 0.08265925 0.19992895 -0.084221095 -0.081591584 0.013998827 0.039678432 -0.047350146 -0.18520382 0.08243812 -0.09290266 -0.102949396 -0.03226583 -0.21082217 -0.14306644 -0.08656941 -0.01822491 -0.1443398 -0.15432699 -0.10228246 0.10969489 0.1315161 -0.01906418 -0.10475214 -0.13938473 0.13133042 -0.24232224 -0.014306743 -0.34082574 0.02006903 -0.0589762 0.09991941 0.14752959 0.18681945 -0.09757662 -0.107697405 -0.03861788 0.14360291 0.034697518 -0.052800193 0.19045824 0.058683943 -0.1863233 0.12757255 -0.03629645 -0.030382559 0.10694578 -0.05539217 0.03240749 0.09964066 0.082385086 0.0016312628 0.08397428 -0.04403755 0.15829186 -0.06494966 -0.029353065 0.046088807 0.17281814 -0.34399724 -0.17912602 0.07694883 0.085904 -0.02285319 -0.04281885 -0.10165616 -0.022046374 -0.38474083 0.21864538 0.075803444 -0.02356936 0.041250084 -0.026588429 0.060788378 -0.15169956 -0.015737593 0.051366128 -0.04433788 -0.16098453 0.21454561 -0.075404175 -0.13673933 0.099688955 -0.06185189 0.12574203 -0.156847 -0.094918594 -0.10577678 -0.08671346 0.0021511414 0.22391613 0.09763743 0.06414411 -0.08136073 0.048990797 -0.09431078 -0.29118443 0.0040134117 0.11613021 0.20533888 -0.052773226 0.13075998 0.06071408 0.024771363 0.01908369 0.15214519 -0.1474058 0.032479104 -0.00297586 -0.12082415 -0.2737139 0.022749228 -0.24769638 0.1415134 -0.02271922 -0.05129465 -0.13376638 -0.03273464 0.115990184 -0.026213253 -0.009469407 0.11370326 0.0355075 -0.0022647616 -0.03045567 0.06541791 0.10326054 -0.18399858 -0.12601867 -0.034302216 0.15509614 0.0058997055 -0.09443708 0.024631025 0.07649831 0.027801163 0.08693615 0.09158663 0.066720545 0.106820814 0.0011176923 -0.14646064 0.01840303 0.036422785 -0.10383914 -0.049855523 -0.07339604 0.06916156 -0.17951933 -0.10421221 -0.16803779 0.30619428 -0.21590461 -0.01724496 -0.046221897 0.04671108 -0.13832302 0.09183006 0.025241597 0.024658645 0.026353564 0.054775488 0.12913571 -0.028866006 0.244444 0.05776348 -0.05969299 -0.20563681 -0.08684723 0.11273077 0.15274175 0.124570936 0.04307356 0.06429469 0.2074986 -0.17757876 0.20739658 -0.11944058
专营店 0.036982432 -0.16013281 -0.17498878 0.28159934 -0.09515923 0.19200748 -0.12864058 0.30992028 -0.082899384 -0.04047463 -0.02799577 -0.15033548 -0.04450196 0.023291452 0.16060084 0.15098362 -0.053148255 -0.0063622375 0.06678011 -0.3153072 0.20619352 -0.121111356 -0.0057271803 -0.06546385 0.21259694 0.15901174 -0.21097347 -0.020945018 0.014217489 -0.08667308 -0.071970016 0.04714773 0.053852405 -0.13934389 -0.0015679926 -0.11616569 0.06379101 0.049400777 -0.038366932 -0.13873497 -0.04572838 -0.053516414 0.026849031 0.14731151 -0.03895859 -0.059153005 -0.12306142 0.08314039 -0.13099831 0.18002555 -0.36116746 -0.07361194 -0.15879372 0.3362168 -0.040789016 0.047053333 -0.1189874 -0.060917202 -0.003803653 0.1439005 -0.16836658 -0.017524512 0.01862789 -0.04446082 -0.057568543 0.039852645 0.13893501 0.09241192 0.0790349 0.06888944 0.098432526 0.156183 0.085531704 0.07018506 0.064221136 -0.060774177 0.068713576 -0.066316344 0.09545222 0.26296872 0.010905927 -0.31221324 0.024613155 0.1149473 0.25821227 -0.092399724 0.041681252 -0.17640127 -0.10722198 -0.41793704 0.039374575 0.28146648 0.001560037 0.05854421 -0.16390264 0.10677028 -0.2965392 0.034727003 0.047318704 -0.15554704 -0.07442021 0.22535592 -0.053553972 -0.24192968 0.041015446 -0.03776094 0.070872396 -0.05502369 -0.21258174 -0.005354616 -0.074370556 0.004042084 0.2972786 0.024442757 0.06936138 -0.17213157 0.00020631036 0.051514596 -0.32108033 0.01002834 0.23612702 0.07300846 0.09599134 0.3031614 0.15327215 0.03239021 0.13226147 0.25267833 -0.12872891 -0.029679086 -0.010084249 -0.26149812 -0.10207958 -0.055105116 -0.08021217 0.07715502 -0.04801788 -0.15131587 -0.062919185 -0.24966992 0.20302875 0.09291703 0.03245088 -0.08797412 0.035495263 -0.14511578 0.08679861 0.23330861 0.14420602 -0.15207516 0.084539875 -0.11044896 0.15919437 -0.105878025 -0.21809283 0.122588836 -0.03336663 -0.060482588 0.07705991 0.0104138125 0.11049538 0.116831206 -0.004373957 -0.17481236 0.05944136 -0.04497112 -0.12329948 -0.007756952 -0.082331896 -0.06774891 0.08223648 0.14629889 -0.013031542 0.04988804 -0.22340484 0.07629652 0.053029217 0.06346441 -0.1827826 6.9547496e-05 0.015444962 -0.11714992 -0.12029594 -0.057973575 0.18088256 -0.06465603 0.22435734 0.15360644 -0.017124148 -0.01924059 -0.17746697 0.039104696 0.025574744 0.009247312 0.19693753 -0.075315334 0.21282108 -0.37902176 0.3059956 -0.10706362
快餐厅 0.058448393 -0.16950998 -0.09411283 0.20567895 0.14867942 0.099772155 0.13719277 0.23456836 0.15418755 0.1870289 -0.06692109 -0.15848865 -0.0692756 -0.14506312 0.13312903 0.13098963 0.0014942246 -0.08307752 0.021771213 -0.27822414 0.11367026 -0.3906116 -0.07519214 -0.07672576 0.20687386 0.09052737 -0.09781621 0.13896991 0.054809336 -0.043666895 0.02343026 0.018587912 0.15660787 -0.17633326 0.047635358 -0.041134264 -0.10385838 0.09305425 -0.014973359 0.046664074 -0.14777838 -0.18931256 -0.12775731 -0.026909476 -0.19178233 -0.06420293 0.0013118312 -0.011426388 -0.037348848 -0.06320074 -0.22916083 -0.0069178496 0.10518506 0.15256713 0.24200949 -0.009753258 -0.13687745 0.08387906 0.0010392008 0.127179 0.10108795 -0.04922957 0.22301506 0.011916581 -0.071865946 -0.109695554 0.15644668 0.0010028842 0.11566659 0.13273863 0.25370756 -0.17228864 0.13640988 0.10581213 0.054416064 0.010986013 0.14413147 0.07567164 -0.14535934 0.028233364 -0.04921357 -0.31766188 -0.0075431345 0.25527984 -0.17223163 -0.011241669 -0.09323806 -0.19441591 -0.038678985 -0.27958 0.009510949 0.107490085 -0.231842 0.289452 0.06614627 0.17708947 0.047721405 0.085742764 0.26129988 -0.032992616 -0.32382727 0.197206 -0.28537196 -0.12789553 -0.1284379 -0.09953618 0.20403743 -0.14821692 -0.32088798 0.01436921 0.0791248 0.0056500114 0.20144846 -0.17824396 0.007083773 0.1270234 0.17520007 -0.09122988 -0.19895573 -0.28939703 0.09931096 0.22029397 -0.03188149 0.15428026 0.1558073 -0.20087034 -0.018736416 0.26423615 -0.09660137 0.28533444 0.012206521 -0.29974273 -0.22339787 -0.10221555 -0.089485966 0.09483339 0.09055948 -0.028386582 0.08004551 -0.06821207 0.07982953 -0.030078975 0.0290838 -0.03403316 0.12396016 0.07416974 -0.20105767 -0.273401 0.16143398 0.0021733544 0.052533083 0.055842504 -0.078252725 0.19083786 -0.2395318 -0.16740777 0.12682204 -0.13036847 0.118470274 0.098407276 0.047353458 -0.13943249 0.11486534 -0.24378014 0.16921303 0.04419247 0.0030572058 0.008530399 0.16510537 0.02289033 0.11584369 0.19676341 -0.05893173 0.18346033 0.006535611 0.15114154 -0.010969734 0.17040889 -0.109369285 0.16839373 0.009047625 -0.10056485 0.038031425 0.0041372837 0.013326525 0.10731425 0.18601051 0.18204752 -0.044614755 -0.028830357 -0.07749991 0.29271507 0.14259456 0.002718518 0.09769774 -0.124624595 0.25226012 0.021526562 0.16168596 0.13062656
科教文化场所 0.07698977 -0.11071733 -0.107666105 0.151763 0.1421296 -0.06023282 0.16400613 0.17187001 0.17041056 -0.087095134 0.007639854 -0.01730801 -0.038419347 -0.20338921 0.11861011 -0.01007062 -0.12595673 0.010865764 0.059033263 -0.18167096 -0.18495582 -0.3006003 -0.010628885 -0.03050573 0.27638 0.047757618 -0.36416677 0.021966666 -0.033349834 0.078246035 -0.02310738 0.21772364 -0.088648334 0.10906122 0.012313851 -0.18765007 -0.14185043 0.07296223 0.0005583795 0.14625037 -0.19215085 -0.2156229 0.14085728 -0.09915096 -0.1561007 -0.18024807 -0.0389634 0.13647754 0.03366633 -0.16566499 -0.08976654 -0.07855392 0.04713932 0.015802365 0.016596679 0.007118082 -0.1268008 -0.122280575 -0.0020147646 0.23143604 -0.22964047 -0.13698925 0.15000714 0.063483626 -0.14105594 0.00060918916 0.11282622 -0.06995113 -0.120478936 0.011203889 -0.16857405 0.020025408 -0.0733614 0.019273138 -0.20832111 -0.08449252 0.29001388 0.001973777 0.1409175 -0.17980655 -0.06092029 0.02728437 -0.19396648 0.0823206 0.20998047 -0.2572389 -0.122777626 0.121151656 -0.076594725 -0.14843766 0.05163923 -0.024710132 0.046738714 -0.08042047 -0.13659482 0.18760082 0.15179724 -0.073188424 0.032638513 0.10243706 0.062679455 0.16046394 -0.10920748 -0.10038763 -0.045258846 -0.082314216 -0.006353072 -0.23198129 -0.15476803 -0.121912345 -0.05872669 0.2229185 0.13270812 -0.16041799 0.089092344 0.13573575 -0.044678185 -0.047505077 -0.14648579 0.028053487 -0.012088458 0.2293531 -0.036114562 0.09639212 -0.012874916 -0.10231688 0.12700926 -0.07312302 -0.03677351 0.034172587 -0.16210407 0.1404022 -0.15337823 -0.14828736 -0.10638893 0.3465782 -0.2314083 -0.20301749 -0.025483191 0.053606544 0.176751 0.04900783 0.1415209 0.250127 -0.04872188 -0.09631994 -0.10996495 0.10720686 -0.04314317 -0.052084856 0.11919127 -0.07767203 0.06513482 -0.12029659 -0.08147791 -0.08662121 -0.0837394 0.068067186 0.03301869 0.16314118 -0.047365095 -0.065940864 0.2279939 -0.11489539 -0.21399528 -0.0034134588 -0.3138014 -0.13684835 -0.1889779 -0.16732568 -0.012601679 -0.18610854 -0.0979356 0.036389418 -0.033848934 0.103537455 -0.1584134 0.21198314 0.020154728 -0.023437947 0.2842605 -0.16644023 -0.025325375 0.16533065 -0.0012434549 0.059661675 0.22347292 -0.08324728 0.10664513 -0.101593554 0.02261992 0.036265265 0.046932537 0.013963492 -0.18789113 -0.10378093 0.13288255 -0.11283802 0.21870136 0.12846091
建材五金市场 -0.3792188 0.12508285 0.0119032245 0.13566785 -0.21529925 0.030670498 0.16263339 0.2352157 -0.15036489 -0.10570189 0.23090717 -0.39107618 -0.112354875 -0.15614174 0.13365401 0.42012924 0.29322165 0.15639172 0.05897885 -0.30696392 -0.18823129 0.07619818 0.070685945 -0.05849446 -0.08532016 0.22491677 -0.25908569 -0.17374313 -0.25034708 -0.1794863 -0.09416391 0.06134165 0.07361357 -0.24951032 -0.14146982 -0.014223706 -0.27213982 -0.07470762 -0.23320992 -0.36641726 0.17985383 -0.085859366 0.17867202 0.092417516 0.009264506 0.11413251 -0.15141845 0.2775141 -0.2662896 -0.14831123 -0.3150209 -0.14290242 -0.22161332 0.56586075 -0.16764097 -0.034333285 -0.2255351 -0.04083539 -0.3171406 0.11482395 -0.29731807 -0.08566166 -0.015965203 0.19324951 -0.31790298 0.09753414 0.032104317 0.27955037 0.028207354 -0.15129352 0.07471067 -0.022659404 0.24558578 0.14668861 0.22114201 0.054746285 0.040619195 -0.1446729 -0.24245788 -0.2850589 -0.20718035 -0.4259694 -0.11720114 0.3280987 0.10627492 -0.09102009 0.0076824734 -0.23081058 -0.2758681 -0.34193748 0.042978477 0.16443197 -0.359178 -0.21755172 -0.012065585 0.09935481 0.022066055 0.15691763 0.40893298 -0.23558001 -0.31261018 0.1810343 -0.20511201 0.12896709 -0.35405946 0.056244407 0.051016845 -0.11551703 -0.22693488 -0.036000054 -0.06774175 -0.008695899 0.09122662 0.1360954 0.26035893 -0.14545396 0.1464705 -0.039165404 -0.27392635 0.08335314 0.40669528 0.23254026 -0.1330984 0.057334956 0.03613111 -0.013323829 0.16109706 0.012336051 -0.2273908 -0.013731086 0.18170893 -0.1013985 -0.092347756 0.14425541 -0.04417649 -0.088568635 0.18904442 -0.11587549 -0.22689293 0.042399522 -0.0640921 0.037930433 0.10111412 -0.27899605 -0.03689347 0.1317072 -0.035054166 -0.0004958912 -0.2020078 -0.4923412 -0.05073612 0.08516279 -0.25373045 -0.121327154 -0.17635712 -0.022125416 -0.10413867 -0.06388269 0.20549501 -0.0631336 0.2140105 -0.1653534 0.1284191 0.08729749 0.28276473 -0.1547065 -0.39614624 -0.026992323 -0.14915518 0.2117128 0.23152481 0.18180536 0.3411331 0.31546572 -0.21635114 -0.13614492 -0.16916755 0.080461815 0.0051845377 -0.20913629 -0.034297515 0.11997026 -0.11930082 -0.20647107 0.11481673 0.18642291 0.08309673 0.24430303 -0.10625306 -0.10506994 -0.12780847 0.38403934 0.29707277 -0.1311812 -0.058480255 -0.39826414 -0.021320835 -0.08660145 0.35446328 -0.092896946
住宅小区 -0.0064647766 0.03491761 -0.13679616 0.17485252 0.068095304 0.05699462 0.08943547 0.36971226 0.020013042 0.05140567 -0.07646687 0.030076431 0.038980722 -0.4882023 0.18743593 0.10074853 -0.02010748 0.10929033 0.099621475 -0.045142774 -0.15408807 -0.08772476 0.068368025 0.08380378 0.122433126 -0.037247576 -0.23313305 -0.017337669 0.14821896 -0.15757947 0.09195625 0.09350752 0.07715699 -0.212338 -0.010498692 -0.21483487 0.15084033 0.10141088 -0.1707439 -0.028976766 -0.02650209 -0.19809437 -0.24730569 -0.038718484 -0.07090324 -0.060418546 0.0417534 0.011569196 -0.19335537 -0.08967882 -0.046835203 -0.06956395 -0.06475133 -0.09231298 0.06292618 -0.033820312 -0.09324426 0.13311498 0.075040884 0.2718887 -0.17045516 -0.23718645 0.049584314 0.0818353 -0.13192004 0.24127465 -0.091562524 0.27715066 0.23561446 -0.014807954 -0.069275185 -0.15288015 0.32496196 -0.10357226 -0.12560876 -0.15837032 0.2934018 0.025669698 0.023541214 -0.103474654 -0.12555434 -0.08413823 -0.23540609 0.16524722 0.04261034 -0.22917531 -0.052539602 -0.041030716 -0.044820834 -0.08557093 0.21897784 -0.046314724 -0.09526789 -0.10283599 -0.09434024 0.1548561 0.21794201 -0.14805113 0.06038006 -0.079430774 0.01952904 -0.132102 -0.21956217 -0.038949702 0.04539186 0.015110712 0.03672016 -0.17312247 -0.1985567 -0.09188947 -0.093938015 0.08380938 0.09763604 -0.05105081 0.11678354 -0.08930308 0.06974325 -0.20920424 -0.08807867 -0.025479002 -0.026150327 0.012882647 0.06978469 0.05519934 0.06389374 -0.075486444 0.092992544 0.19498196 0.22213647 0.32005125 0.26289004 -0.16388333 -0.051822226 -0.10203575 -0.14218704 0.22609907 0.04862956 -0.052849654 -0.034177184 -0.118480116 0.12273019 -0.17629696 0.025808506 0.009566074 0.10117676 -0.12180875 -0.10308062 0.058215193 -0.24587622 -0.30303288 -0.19369686 0.1576049 0.09113371 -0.23464161 -0.03899166 0.0020495094 0.034743126 0.07869872 -0.032178126 0.23488568 -0.08187731 -0.20956653 0.04147306 0.004301587 -0.047705486 -0.10621646 0.027285976 -0.058785085 -0.047451526 -0.19036767 -0.11858549 0.049043998 -0.032086715 0.20165884 0.19589281 0.08545538 -0.022504065 0.04521404 -0.045146726 -0.06523202 -0.016099332 -0.20258589 -0.022354323 -0.05759691 0.04088813 -0.06486629 0.08114494 0.0632934 0.344373 -0.01722795 0.2240339 0.060596887 0.15627405 0.15550841 -0.14171207 -0.02176369 0.21787854 -0.26324466 0.21277523 0.0074068503
公共停车场 0.10019419 -0.08317238 -0.20866287 0.2713664 0.0020409434 -0.05203806 0.101742946 0.11074001 -0.111061595 0.09394969 0.13830887 -0.07791281 0.0991665 -0.3335207 0.08856025 0.070440754 -0.17524166 -0.026565388 0.06566269 -0.1063242 0.001879246 0.017918903 0.13512601 0.112354524 0.11752843 0.04095326 -0.16616207 0.06335815 0.04680647 0.07771746 0.022607075 0.025579667 -0.048896957 -0.1770781 -0.18705301 -0.016214456 0.1574389 0.05834478 0.15961607 -0.070404 -0.14995211 -0.2398219 0.036364727 0.054397885 -0.2884597 -0.13523999 0.1381031 -0.03933913 -0.10842789 -0.06834428 -0.26355085 -0.094758414 0.22251892 -0.09561485 -0.01783594 -0.14231353 -0.028908357 0.041908596 -0.02435654 0.04493647 -0.10001903 0.02851013 0.07092533 0.024931526 0.024720851 0.11675795 -0.031277783 0.25466108 0.12263611 0.05370511 0.03741457 0.101460956 0.20569839 -0.113499425 0.1256414 -0.034515355 0.21514076 0.02927421 -0.13245745 0.010126795 -0.14486103 -0.14573488 -0.07288533 -0.069461115 -0.019514853 -0.10323189 -0.27224115 0.07361305 -0.09894804 -0.054647245 0.14666569 -0.08061116 -0.11820136 -0.15675792 0.054247018 0.19406632 0.12135356 -0.056112465 0.124848984 0.043612678 0.046758182 -0.15155286 -0.30601275 0.04637302 -0.078496635 0.020851757 0.10802693 -0.02058731 -0.10573638 -0.27715844 -0.2767305 0.014441984 0.16641068 -0.018238623 0.15407489 0.102799885 -0.2922889 -0.25416106 -0.30905065 0.0073708473 -0.22195445 0.27354643 -0.17477971 0.30162573 0.10164723 -0.026167007 -0.04766189 0.07369055 0.00010221 0.1616186 0.07123017 -0.08146396 -0.23473963 0.021646561 -0.2002193 0.103725545 0.16706406 -0.19920202 0.069006026 -0.081002906 0.12753904 -0.079449885 -0.11050317 0.18425451 0.18557769 -0.116616234 -0.15645346 -0.02281713 -0.30250078 -0.1707693 0.022797711 -0.11222803 0.2735043 -0.28572482 -0.06371072 -0.15295783 0.03675985 0.13694839 -0.021638857 0.2482112 -0.28856236 0.008108782 0.05482789 -0.07615737 0.00055128796 0.020499893 -0.17534813 -0.028105749 0.19266121 -0.032473642 -0.111737065 0.07090298 -0.00927822 0.104126275 -0.22683199 -0.12511289 0.14336981 -0.2349068 0.052906953 -0.009316981 -0.0018015722 -0.17392136 -0.029032268 -0.13271204 0.1940629 0.0022846335 -0.06907862 0.060122423 0.02337296 0.07330834 0.065425456 0.0033978645 0.18061519 0.03308058 -0.14294666 -0.023218606 0.06751408 -0.113990255 0.12534475 0.059169993
便民商店/便利店 -0.05705489 -0.20902789 -0.14702408 0.18914574 0.11584909 0.041278884 0.04361009 0.24908245 0.070149064 0.114087366 -0.0069573466 -0.0047100787 0.24524467 -0.15211923 -0.0064607207 -0.01931196 -0.020550638 0.028211722 -0.029892275 -0.049437363 -0.07042668 -0.3252651 0.038244165 -0.09008954 -0.05069821 -0.110790215 -0.10470946 0.20344095 0.03796483 0.0645891 -0.07777057 0.10927012 -0.029848581 -0.23667948 0.02079532 -0.1689752 -0.1316888 0.04798592 -0.08852739 0.07700235 0.004867021 -0.17414954 0.14019343 -0.031517558 -0.09778378 -0.03717406 -0.059210606 -0.06253232 -0.22759283 -0.076064534 -0.335176 -0.049953055 -0.04892914 0.14751491 -0.028551253 -0.029295834 -0.11584022 -0.06777038 -0.056866523 0.07216144 0.091361545 -0.093838625 0.13261138 -0.12531728 -0.24018177 0.1290557 0.14159876 0.16701446 0.022852248 -0.079650454 0.06169971 0.114098825 0.10824614 -0.017975619 -0.19348827 -0.05016943 0.102879725 0.04164871 -0.31882775 0.01948692 -0.15419783 -0.12912689 -0.2132786 0.049683977 0.018755335 -0.16953383 0.019785546 -0.22081226 -0.07043675 -0.033488482 -0.13900764 0.20273642 -0.06870083 0.1986563 -0.19840355 0.38067043 0.15031399 0.064572334 -0.003454855 -0.25487506 -0.09300211 -0.07517788 -0.29091918 -0.10039762 -0.113730736 -0.16047092 0.21700254 -0.18121423 -0.25914535 -0.09330747 -0.031120427 0.12009427 0.13421099 -0.0135437725 0.04094349 0.08594397 0.010884818 -0.05967486 0.020804718 -0.039939757 0.20218706 0.23953469 -0.14228746 0.119321905 -0.04648715 -0.01678698 0.1701889 0.12906657 0.04960345 0.14938001 0.095448546 -0.2691452 -0.07291989 0.057761952 -0.012763594 -0.0077149183 0.13417014 -0.29723147 0.086229384 -0.013227623 0.009379329 0.040888246 -0.071865104 0.29202968 0.1815006 -0.034991644 -0.35736972 0.026090547 0.268747 -0.29959163 -0.16179548 0.28037667 0.097188085 0.09285519 -0.22870773 0.16201791 0.036463477 -0.007498061 0.24493743 0.13139729 -0.06401202 -0.07303361 0.032458894 -0.0071089477 0.108446315 -0.105069995 -0.10958889 -0.21575381 0.018908994 -0.046979133 0.16897407 0.13615635 0.0921042 0.102073275 0.01523575 0.10834425 -0.013838567 0.16982514 -0.056928493 0.07571301 0.049203306 -0.022230769 -0.0474238 0.03674918 0.027852055 -0.091781914 0.120152146 -0.2179109 0.20439592 0.13786465 0.030563641 0.25449646 0.08036376 0.13054341 -0.1430445 -0.13358909 0.12917662 -0.1415594 0.19667491 -0.15751679
路口名 0.048054516 0.04157544 -0.30111617 -0.038267538 -0.079612106 -0.10693268 -0.053431585 0.1736536 0.12610036 -0.24066356 0.2970175 0.14275861 -0.12264807 -0.35471123 0.011272841 -0.1630865 0.15732151 -0.024800235 0.052993014 -0.16937657 0.0032133942 0.15821795 -0.10024348 -0.0024455264 0.35910323 -0.052659277 -0.23366827 0.09325741 -0.14674847 -0.27438024 -0.060817625 0.25158206 -0.0744809 -0.2606702 -0.20705251 0.096472 0.2758247 -0.051471297 0.14074817 -0.3067577 -0.03362086 -0.17642476 0.020901754 0.108013794 -0.15025426 0.23488486 0.017595498 0.18102309 -0.0035337433 0.16584386 -0.037135057 -0.14100315 0.020222045 -0.17760676 0.22989745 0.06349839 0.06139451 0.13967845 -0.108842865 0.030181581 -0.19977815 -0.20318176 -0.11081647 0.14849576 0.1450853 0.17891778 0.16161144 0.25725156 0.046848826 0.12435188 -0.21587178 0.040049843 0.19599274 -0.2934702 0.053466845 -0.16310045 -0.014859536 0.06830815 -0.41176507 -0.02687097 -0.22636373 -0.21545431 -0.030296266 0.11635385 0.2428537 0.13422735 0.016343037 0.020270327 -0.2526122 -0.10370561 0.37089148 -0.19056083 -0.18813771 -0.0067344774 0.063026786 0.16412814 0.4193832 0.038115915 0.26638752 -0.08502222 -0.05373943 -0.029970486 -0.48705488 0.10051507 0.030499464 0.09397761 -0.1243207 -0.15577942 -0.20554835 -0.16374564 -0.0790545 0.056604065 0.16530734 -0.18883616 -0.021424586 -0.037928984 -0.20869212 -0.025130467 -0.1763628 -0.16296008 -0.05591438 -0.0054882998 0.14155261 0.417185 0.045313176 -0.19272864 0.050698366 0.12465215 0.009574956 0.098924056 0.053417403 -0.22044197 0.08771082 -0.23779075 -0.24788785 0.17795002 0.14169988 -0.14433752 -0.05437619 -0.08652694 -0.101698376 -0.16095395 -0.2126127 0.29939166 0.23619354 0.081657924 -0.041206896 0.059414145 -0.07029409 -0.12997168 -0.13073787 -0.04679326 0.15009868 -0.23871496 -0.22133687 -0.13236624 0.054559063 -0.04460423 -0.021100115 0.23947915 -0.2733328 -0.077770844 -0.06758786 -0.349753 -0.06707863 0.17714465 -0.27053395 0.063935354 -0.00621251 -0.12634249 -0.0971992 0.26375303 -0.044184703 -0.18413895 -0.06287621 -0.021676052 0.05316851 -0.12113337 0.05399495 -0.14553697 0.05202919 -0.015862705 -0.06096566 -0.094574764 0.28319386 0.056355342 0.16313984 -0.06253907 -0.030162303 -0.29460713 0.16852857 0.04055886 0.37536928 -0.1092212 -0.08737718 -0.20466432 0.071751505 0.114372425 0.095195055 -0.06807361
商务写字楼 0.064409584 0.1824986 0.061935816 0.13260895 0.15872817 0.060194258 0.16964386 0.2596707 0.067736916 0.08838363 -0.13929898 0.1598936 0.26841906 -0.11206434 0.06603757 -0.12138178 0.022463897 0.051272955 -0.037905674 -0.25401357 -0.11580072 -0.0763433 0.0007854262 -0.00080470997 0.24478036 -0.07860734 -0.20820011 -0.0064169955 0.10771058 0.039503224 -0.09827169 -0.06722681 0.16720141 0.071260996 0.028857544 -0.2047595 -0.061160117 0.2705219 0.09753108 -0.015951283 -0.07124663 -0.040159363 0.22200371 0.013820889 -0.22000195 -0.10033153 0.14533746 -0.091160804 0.0675528 -0.10948033 -0.18305875 0.017747693 0.35246116 0.056188524 0.030750344 -0.052883666 -0.117291875 -0.10933013 0.10294563 0.2880705 -0.19400492 -0.15070821 0.053043615 0.053567838 -0.03346956 -0.069814615 0.11465847 0.12197827 0.0065409457 0.20759852 -0.030864956 -0.18071951 0.27087528 -0.11055514 -0.21457632 -0.097053275 0.34344083 0.024360448 -0.040079262 0.054254144 0.0036670798 -0.21266766 -0.23231173 0.005908147 0.14063796 -0.013395005 -0.047076296 0.059525814 -0.12281344 0.023024594 0.08564604 0.051581055 -0.13497712 0.06464644 -0.1077336 -0.024476165 0.08787663 -0.118098155 0.08282244 0.19155872 -0.087361954 -0.09942615 -0.19826384 -0.07767097 -0.010949151 0.0065390505 0.18826032 -0.43806225 -0.058413457 -0.14066228 -0.0674356 -0.069612086 0.18244103 -0.33761597 -0.063739076 0.08449659 -0.053857043 -0.17338428 -0.31235307 -0.0613653 -0.14458783 0.1271596 -0.047307234 0.33975604 0.025021888 -0.18217848 0.021308582 0.045461167 -0.2702792 0.025538957 -0.28606978 -0.09836782 -0.09631413 0.041223787 -0.13910893 0.1504017 -0.009544274 -0.17041121 -0.050609186 -0.1828459 0.17350939 -0.17968147 -0.17956086 0.3323825 0.06276104 -0.11590048 -0.043616835 -0.1471653 0.0043609296 0.011371319 0.26181185 -0.14521971 0.18989234 -0.085645616 -0.27562377 -0.12908475 0.09377482 0.26593322 -0.15699401 0.23440632 -0.09497357 -0.0025084564 0.11387733 -0.014957662 -0.19426554 0.08679691 -0.048256166 0.06331947 0.0130158365 -0.17701933 -0.10425009 -0.03202793 -0.24206711 0.20728588 0.025260003 -0.06974015 0.08517358 0.14710407 0.09404067 -0.13008505 0.10630795 -0.21530132 -0.019067338 0.069004335 0.084508084 0.06973592 0.006338572 -0.10076986 0.06483114 0.15451469 0.15127975 0.07000699 0.28808847 -0.09084376 -0.14904769 0.040582992 0.08542047 -0.20260152 0.08525649 -0.12273919
品牌服装店 0.06254246 -0.23761639 -0.16260657 0.03608574 -0.07106979 -0.050210092 -0.07778735 0.47868973 -0.16004913 -0.04785437 -0.23449916 -0.41342232 0.1792716 -0.11437242 0.116428174 0.30446222 -0.4119957 -0.07314451 -0.15526374 -0.23122369 0.3107032 -0.40165648 -0.10126932 -0.12887727 0.4210242 0.046576247 -0.25474712 -0.08734473 -0.026829254 0.029489882 -0.14724381 -0.11719729 -0.24254422 -0.08394259 -0.10791641 -0.24601361 -0.07009798 -0.06591498 0.13433379 -0.038826164 -0.41712376 0.30512717 0.17954066 0.09744923 -0.15332475 0.06594364 0.019564336 0.15209052 0.118510485 0.08198965 -0.17024648 -0.17844012 0.043228097 0.32063895 0.43928784 0.118106484 -0.21922229 0.15158235 0.31981212 0.09050836 -0.29615834 0.08105058 -0.15712139 0.19287428 -0.12247227 -0.2866529 0.005106595 0.06900697 0.33238885 0.20952202 0.09167215 0.38988996 -0.08542318 0.14400932 0.22281915 0.33915928 0.089977495 -0.20315921 0.053050578 -0.06544275 0.24866262 -0.10915821 -0.12631118 0.13716361 0.06680056 -0.29897097 0.034035787 0.03388123 -0.2801796 -0.21123277 -0.0955678 0.2753168 -0.04077178 0.179703 0.23613125 0.10966464 -0.15302223 0.051001523 0.19394037 -0.2159586 -0.13174877 0.15447013 0.040859222 -0.0932977 -0.009225243 0.019268656 0.112509444 -0.06243203 -0.04564123 0.083545975 -0.082743295 -0.06777066 0.29815203 -0.16521099 0.25463146 -0.09003331 -0.0906821 0.18336637 -0.17613468 -0.17200604 0.43350884 -0.17827593 0.1863033 0.41111574 0.2939174 -0.29200962 -0.23452245 0.35413948 -0.13564858 0.06875378 -0.24979837 -0.33735737 -0.46329835 -0.038605675 0.0033007958 0.11688082 0.13116258 -0.12614919 -0.17669982 -0.13117065 0.120570846 -0.08447207 0.020301158 -0.2727187 -0.2428548 0.16367012 -0.06676983 0.085765384 0.23296107 0.0012818902 0.12008234 -0.23797682 -0.33139095 0.14415638 -0.55325216 -0.09662792 0.04110007 -0.10763053 0.13398765 0.06483423 0.022714416 0.07213175 0.0616831 -0.26547307 0.0787156 -0.25911257 -0.4842222 -0.022229606 -0.16050477 -0.10560694 0.06681773 0.27783805 0.056989476 0.2049588 -0.2153548 0.08389799 -0.06754095 -0.09145819 -0.18354928 0.08194065 -0.16377059 -0.38121942 0.04847606 -0.082906745 0.1663233 -0.1403096 0.2001191 0.16418739 0.11933797 -0.08665132 -0.17695597 0.2133892 0.23416692 0.049277365 0.2547138 0.08189723 0.16860753 -0.5044323 0.23526984 0.1196775
服装鞋帽皮具店 0.0804374 -0.18435901 -0.2349424 0.29052782 0.015691983 0.051897015 -0.024912735 0.18197264 -0.08275943 0.09540252 -0.40557155 -0.13828321 0.25069812 0.12685305 0.09067367 0.19066921 -0.046525367 0.12652288 0.015398545 -0.2570647 0.054746777 -0.12767796 -0.13093399 -0.117047116 0.3081288 0.32496125 -0.41281185 -0.24014 -0.03632706 0.11958116 -0.09017392 0.031143308 -0.20258448 -0.161414 0.020467192 -0.34404215 0.115335114 0.09456872 0.2743103 0.08823498 -0.11415601 -0.024876734 0.085138 0.010953418 0.17313671 -0.26023236 -0.04328559 0.005935682 -0.033916958 -0.027104141 -0.17507628 -0.1674116 -0.1289049 0.22896299 0.11918314 0.017658127 -0.20252156 0.05991256 0.06505505 0.0051191314 -0.030344551 -0.275739 0.03113963 0.0042827865 -0.13671908 -0.00991528 0.09532713 0.14487469 0.1053945 0.14330302 -0.087583885 0.21271011 0.1774984 0.08169521 -0.031721033 -0.15421423 0.23201382 -0.050340552 -0.16798934 -0.18705934 0.2463935 -0.20892994 -0.15446301 0.02823128 0.04259178 -0.056395847 -0.06733109 -0.20303924 0.0022431281 -0.4026727 0.066640444 0.02124396 -0.016856648 0.15523447 -0.08022406 0.010867935 -0.21059914 -0.1840914 0.15645674 0.09707775 -0.12942967 0.153795 -0.1180654 -0.044735998 0.04580681 0.13415156 -0.00069891266 -0.26265907 -0.23040771 -0.0978895 0.038252957 -0.048834853 0.050265837 0.0012946365 0.23977773 -0.2936138 0.09214776 0.08552515 -0.3274812 -0.19648175 0.37847283 0.24475126 0.08447871 0.22692616 0.089268684 -0.15623821 0.21158051 0.21638905 -0.057967156 0.0634828 0.040875908 -0.39535412 -0.2599994 0.15124892 0.0044960044 0.060239013 0.033620227 -0.09944391 -0.016989816 -0.2166736 0.13101812 0.15355358 0.091111176 0.13097957 0.06645118 -0.09937863 -0.004007741 0.27693027 0.2980844 -0.028006725 0.13288304 0.06833738 0.018812248 0.07587144 -0.08023516 0.18831156 -0.13951498 0.03548107 0.08533383 0.10271295 0.20583108 0.13201539 0.03037491 -0.23715456 0.12748761 -0.17022085 -0.3324936 0.02397294 -0.11578586 0.11932446 -0.0011055855 0.1989051 -0.18793893 0.062339973 -0.29416603 0.16172788 -0.0815322 0.1667985 -0.1490249 0.18584195 -0.09198745 0.14282279 -0.22142993 -0.18061364 0.2045999 -0.21021444 0.15921287 0.16241185 -0.07599217 -0.016909106 0.15250818 0.030509384 0.07860042 0.18865423 0.11088425 0.04276042 0.071502194 -0.18509635 0.10043353 0.020204224
公司企业 -0.089251764 -0.10125504 -0.12107353 0.15373647 0.10077878 -0.03497937 0.027325507 0.33293927 0.1711347 0.11728552 -0.012267166 -0.09412645 -0.08184705 -0.06603083 0.10666635 -0.07941543 -0.11021912 0.0503717 -0.021340001 -0.2314345 0.09755428 -0.12993568 0.034795407 -0.07588668 0.1938502 -0.049454335 -0.10881278 -0.025307307 0.029191 0.0822735 -0.09741941 -0.013993596 0.09756886 -0.13304614 -0.04377635 -0.10903963 -0.13545555 4.8391987e-05 0.15748766 -0.18329537 -0.08965654 -0.07387399 0.1637805 -0.091962345 -0.08276329 0.15842879 0.12501481 0.090204805 -0.018616488 0.041444078 -0.17150992 0.09026376 0.029327746 0.11076441 -0.014242993 0.057995196 -0.0137831215 -0.12737043 -0.143753 0.14175771 -0.2732269 0.004478651 0.18937899 0.0869443 -0.018854499 0.07465584 0.07747561 0.18342859 0.016641395 0.028902618 0.05471687 -0.036030415 0.23708618 -0.14226301 -0.060103353 -0.17977342 0.05144384 0.050646145 0.13094492 -0.16863826 -0.123245545 -0.16934034 -0.026760718 0.2570173 0.2148221 -0.098692015 -0.066002995 0.058259275 -0.03968518 -0.010223857 0.0559104 0.11863345 -0.12357959 -0.044911243 -0.011645945 0.081961416 0.084926896 -0.25199994 0.2432737 -0.032459907 0.17436014 0.20417601 -0.03234913 -0.3675583 -0.05307453 -0.11090926 0.19620924 -0.23635836 -0.18838723 -0.06629082 0.13605882 -0.1715101 0.1715032 -0.0859561 0.040832825 0.17919943 -0.07146702 -0.03007327 -0.32418245 0.10545839 0.06756857 0.25817204 0.10035829 0.44397828 -0.30962902 -0.02464103 0.18557806 -0.03185859 -0.09441264 -0.3124254 -0.13587947 0.1374917 0.071207784 -0.020498378 -0.014378234 0.27669802 -0.1963188 -0.16661175 -0.09412599 -0.052956793 0.17470142 0.046059743 0.061684772 -0.029843565 0.106927104 -0.13430941 -0.021329427 0.028015662 -0.07168994 -0.104594104 0.034389965 -0.034946334 0.27033767 -0.21956438 -0.20649423 -0.013812874 -0.03214497 0.007706579 -0.009395911 0.17468347 0.08729006 -0.023477815 0.03313147 0.036284797 -0.047085516 0.21108137 -0.14303675 -0.019598212 -0.076445095 -0.027203102 -0.20184118 -0.19199018 -0.031155616 0.057072688 0.05289408 0.040889315 -0.10596166 0.21076283 0.22666124 -0.055340175 0.10834038 -0.23356752 0.07765403 0.024529552 -0.026794614 0.046823014 0.22090863 -0.09959254 -0.026918843 -0.083487466 -0.037681345 0.19443537 0.08681274 -0.027135229 -0.2761063 -0.087925985 0.10132256 -0.02953736 -0.025454266 -0.3521564
乡镇以下级政府及事业单位 -0.07804302 -0.18716232 -0.5578721 0.37476856 -0.086607166 0.12096727 -0.098095156 0.3991642 0.32702315 -0.1367894 0.088575415 -0.13965587 0.11465618 -0.19658446 0.23362298 0.20672613 -0.063268766 0.19628385 0.18762796 -0.47920716 -0.25438482 -0.0003778886 0.20888796 -0.19597512 0.055673797 -0.011150826 -0.11749853 -0.038192086 0.1502619 0.2710363 -0.34448537 0.24205686 -0.10103644 -0.35184586 0.16501734 -0.45628944 -0.16374794 -0.11348108 0.088391766 0.023227224 0.15078297 -0.047079083 -0.11961137 -0.059971347 -0.11524679 -0.16383226 -0.048281897 -0.134258 -0.31689122 -0.11483511 -0.35894188 -0.06634572 -0.16994661 0.178959 0.051268473 0.2660738 0.015193772 0.22719258 0.23547839 0.18516123 0.105525866 -0.4132749 0.27391598 0.19694343 0.13673201 0.021270495 -0.2606139 0.12950681 0.2714573 -0.24704973 -0.049447663 -0.005502663 0.0878525 -0.1395237 -0.049524847 -0.47876632 0.07927567 0.35571337 0.15305549 -0.30155176 -0.16267934 -0.3748928 -0.4181154 0.06530751 0.11094958 -0.17488043 -0.003769149 0.063225165 -0.23123598 0.029371904 0.07218557 0.009042928 -0.37369356 -0.23579612 0.14156927 0.17166938 0.06569292 -0.04948266 -0.26741803 0.03778834 0.06771334 0.17433476 -0.19211417 0.18372482 0.17075795 0.13649423 -0.010404153 -0.27438423 -0.05325031 -0.24936202 -0.10275193 0.32297102 0.06903575 0.10863237 0.10545445 -0.038627923 -0.024747858 -0.11176505 0.21968724 0.051746678 -0.12960866 -0.09566463 0.054721676 -0.22518276 -0.0967497 -0.1984817 0.2500216 0.24880958 -0.10701183 0.35584715 0.1853964 -0.23714152 0.24951056 -0.1891928 0.06311082 0.44482985 0.046899617 -0.037742402 -0.17423926 0.40347195 0.07003587 -0.27187 0.07794129 -0.006692929 0.017540198 -0.41356504 -0.17035793 -0.1776134 0.01678391 -0.5441546 0.02441895 -0.0052530705 0.021675132 -0.28889397 -0.4092411 -0.17602406 0.17219499 0.16934504 -0.12801972 0.275634 -0.17847589 -0.0070625767 0.07809821 0.07577726 0.11552208 0.28790984 -0.11851005 -0.245324 -0.11299225 -0.30167007 0.18798408 -0.092503615 0.20162041 0.39752856 0.4383148 -0.33379313 -0.07244634 0.02925412 0.11434625 -0.02675803 -0.24436365 0.09257451 -0.0073543005 0.30939054 -0.22580226 -0.23965722 -0.10724819 0.014508358 0.20534089 -0.12266825 0.13279088 -0.024400726 0.13688107 0.12700161 -0.49524805 -0.33070132 0.1421953 -0.23041503 0.19876415 -0.018887874
公共厕所 -0.052152 -0.26095262 -0.4012367 0.16505964 -0.27527997 -0.015754424 0.09578169 0.27172545 -0.12491451 0.016730806 0.064389795 0.057216305 -0.039096903 -0.14046353 0.07841795 0.093149126 -0.10112027 -0.02122973 0.13036762 0.1280714 0.16190861 -0.037550215 -0.03154425 -0.211536 0.2879737 0.015689448 -0.23675479 0.28847408 -0.18035954 -0.29153898 -0.1566888 -0.20771265 0.004491287 0.038590766 0.082867816 -0.23557106 0.078433186 -0.21034186 -0.024794426 0.25288418 -0.042243037 0.026857367 -0.013936231 -0.010487814 0.058299016 -0.17960279 -0.054580707 -0.14613985 -0.1100392 -0.00626205 -0.36222365 -0.23095426 0.00055849465 0.24130689 0.10272446 -0.0003715247 0.3011419 0.114809975 -0.080700725 -0.10788813 -0.119843975 -0.2677591 -0.08198029 -0.03205644 -0.29273456 0.13177195 -0.046708193 -0.032287527 0.16869418 -0.25832173 -0.14652607 0.07266755 0.10461465 -0.1256752 0.16273504 -0.10465603 0.10760522 0.14355268 -0.103274934 0.02910951 -0.26356944 -0.10027589 0.03062158 0.13135749 -0.081835136 -0.16411455 0.017373085 -0.25774863 -0.050082497 0.13514602 0.14174083 -0.11853267 0.0025828057 0.14109989 -0.24756406 0.116930306 0.07601467 0.020601802 0.35667142 -0.13649537 0.18111303 0.12994269 -0.28495488 -0.021612668 -0.14213766 0.059895523 0.24429406 -0.22096662 -0.37030795 -0.14306928 -0.1027093 0.0341032 0.00091334316 0.09762582 0.075364016 0.24025963 -0.06844771 -0.13724424 -0.12462863 -0.2140068 0.13187943 0.112143524 0.011719503 0.36657137 0.34132186 -0.23452078 -0.2774608 0.020050852 -0.17200385 0.15059683 0.3833118 -0.18115725 -0.12685649 0.16125211 -0.054761957 0.36582208 0.0746975 -0.20705242 0.1335074 0.11110782 0.107951455 -0.15538985 -0.15280668 -0.13351528 0.1293853 -0.063386194 -0.070745245 0.04716759 0.15958591 -0.33058032 -0.037995484 -0.068883374 0.012691769 -0.17625628 -0.3571694 -0.036559798 -0.044506628 -0.064463444 0.17587973 0.016564487 -0.11417476 -0.24184297 0.0018135633 -0.02021591 0.09780751 0.05350926 -0.11219538 -0.31579 -0.016572563 0.12536 0.043868307 -0.010496506 0.1730168 0.03805057 -0.034284413 -0.011884995 0.106923416 0.054979056 0.23930487 0.34311754 0.066799454 -0.18828318 -0.24176702 -0.068280764 0.02580803 0.08480064 -0.040172625 -0.021456031 0.051427606 -0.014133038 -0.046014883 0.22347343 0.3512459 0.0024994574 0.0020879316 -0.2842719 -0.19999753 -0.14437188 0.26943547 0.025306845
洗浴推拿场所 0.28418678 -0.100868694 -0.18696305 0.31970248 0.42435637 0.11954877 0.005069912 0.31306672 -0.06144632 0.01808927 0.02762776 -0.0687152 0.11398447 -0.16150592 0.069635645 0.0844994 -0.058860235 -0.20391278 0.03784412 -0.2018112 0.044504385 -0.4531281 0.08354569 -0.18920712 0.068068415 0.08498478 -0.047449365 -0.19287631 -0.13611263 0.0494902 -0.057587832 0.08359215 0.03485445 -0.29910052 0.055325948 -0.10876746 -0.032245 0.031599272 -0.020275706 -0.23990276 -0.073571436 -0.101538755 0.12549363 0.21362849 -0.08556828 -0.21867079 0.21994913 0.11237389 -0.23002139 0.0011091663 -0.19562854 -0.032521814 -0.023631006 -0.15826502 0.1338423 -0.09080554 -0.34548485 0.07160031 -0.08748777 0.02682746 0.19483729 -0.2647335 0.2856339 0.16489892 0.014598868 0.3096991 0.082652725 0.017678587 0.24450722 0.0719465 -0.08892682 0.14588961 0.32271355 -0.18467782 -0.1960095 -0.05468918 0.12587658 -0.154307 0.32714307 -0.129684 -0.0732684 0.0033457226 -0.006954904 0.23149739 -0.04254563 -0.08986824 0.009538231 -0.10757087 -0.058066845 -0.32502225 -0.034988947 0.080281496 -0.010973912 0.019316813 -0.16690573 0.38038868 0.33519208 0.10285853 -0.15057632 0.04141993 -0.17294708 -0.0038778137 -0.2752898 0.13972306 -0.023162264 0.015756626 0.19256817 -0.3168056 -0.17301941 -0.097151525 0.003846101 0.037257258 0.087968804 0.0003184363 0.17239231 -0.28157756 -0.06564732 -0.33174893 -0.22709909 -0.10105124 0.06976192 0.11348575 -0.18476073 0.15162036 0.023720702 -0.046361 0.1254347 0.41796553 0.0717931 0.15324718 -0.024264604 -0.07034117 -0.09812654 0.12106405 -0.05254296 0.10538462 -0.04339152 -0.16488706 -0.05196873 -0.12478826 0.11831634 0.2169009 0.14341146 -0.007949603 0.22735804 0.047620647 -0.14832619 0.08401714 -0.000320724 -0.28745887 -0.2197321 0.07656054 0.1693611 0.08793232 -0.06329813 0.048553895 0.044494756 -0.19388132 0.1370232 0.12719193 -0.13903275 -0.2395294 0.24921013 -0.044617362 0.3713287 -0.02733188 -0.24094766 0.045454267 -0.058678117 0.046429075 0.15437883 0.20092101 0.10649164 0.057729155 0.17911287 0.0068509444 0.046726808 -0.115836486 0.21750906 0.30452245 -0.36407965 0.15865834 0.011073302 -0.12552801 -0.103533804 0.069797896 0.19607295 0.16935644 0.08221952 0.16218433 0.29512054 0.14378403 0.13212119 0.12205336 0.034617413 -0.112052366 0.20406462 -0.29707652 0.18762001 -0.12462342
烟酒专卖店 0.015138611 -0.18064837 -0.047913883 0.35950634 0.16096675 0.06465951 0.22912858 0.07078779 0.038234882 -0.058410004 -0.08510167 -0.23549022 0.070731975 -0.16139214 -0.09904078 -0.013320695 -0.1174199 -0.0008279518 0.043790814 -0.23636715 -0.16546556 -0.26570472 0.17943138 -0.114780754 0.07151061 -0.06552624 -0.2119537 0.13710436 -0.0030736066 -0.0035667242 -0.06851786 0.08248029 0.012501527 -0.29583913 0.01342465 -0.068266556 0.21621278 0.33701354 -0.06917432 -0.17794308 -0.09770582 -0.27723083 0.06267157 0.06557174 -0.21405354 -0.23482096 -0.080339104 0.14543183 -0.15227498 -0.0888854 -0.14103974 0.0036274896 -0.1870295 0.0055065895 -0.091218166 0.10449671 -0.1418376 -0.25435507 -0.16121815 0.11439539 0.04590743 -0.3644113 0.12697022 0.149923 0.0769305 0.18252966 -0.047133688 -0.030155824 0.014924655 -0.011404412 -0.21508113 -0.09597504 0.24476576 -0.12774104 0.05052086 0.0076066535 0.08265908 -0.059620086 0.0732365 -0.04074591 -0.029032132 -0.14533445 -0.066815935 0.122970566 0.12726255 0.0036503447 -0.06681443 -0.040235735 -0.030256724 -0.29258138 -0.023577392 0.16053289 0.072481945 -0.06010398 0.15475032 0.20222422 0.3300499 0.022146491 0.1631211 -0.018424822 -0.086306974 -0.07676474 -0.16085716 0.01956147 0.025093678 0.09384345 0.19005154 -0.19003886 -0.40226588 -0.017977882 -0.1419959 -0.17350331 0.39331555 -0.17633218 0.0992478 -0.097786546 0.28576872 0.09222585 -0.12858625 -0.27394733 0.349936 0.106245376 -0.2259124 0.18812115 0.18101816 0.20307226 0.39200318 0.36338487 -0.039085086 0.19457917 0.0423631 -0.22040364 -0.19137181 0.1812391 -0.28026506 -0.043518983 -0.09761285 -0.09876252 -0.027449572 0.039490126 0.06576221 0.11316363 -0.006434322 -0.006933774 0.19029056 0.087767914 -0.22319297 -0.05139026 0.026389552 -0.21296392 -0.09805897 -0.091316886 0.051480614 0.039193336 -0.1274931 -0.055994585 0.1653754 0.11592784 0.17990462 0.070915036 -0.020257475 0.075369276 0.11453646 -0.34433714 0.019107858 -0.23794702 -0.22891687 0.28783652 0.027650753 -0.1265788 0.17255192 0.0904849 0.013687953 0.009838471 -0.043281555 0.12862033 0.017533783 -0.023362938 0.09301459 0.24016765 -0.029787058 -0.13154174 -0.0023492575 -0.16942817 -0.027601128 0.0267853 0.19674744 -0.10355594 0.045187738 0.17204365 0.18312629 0.3105609 0.010450338 0.12938286 0.050877377 -0.1779205 0.059984047 -0.25429705 -0.034260876 0.1641343
路边停车场 0.1568165 0.13226709 -0.263201 -0.038006254 0.051559687 -0.063132174 0.13149701 0.3459963 0.2329498 0.15205993 0.04117276 -0.015622585 0.1461947 -0.33935162 0.16377878 -0.02706833 -0.1064337 0.10834975 0.10578885 -0.048572466 -0.22147813 -0.27623564 0.22698763 -0.20173903 0.2093974 0.16723059 -0.35989675 -0.25645736 0.20733276 -0.15090026 -0.073177226 0.18776819 -0.115397856 -0.25240326 0.1732799 -0.21001928 0.08167575 0.087973595 0.10883254 -0.23848803 0.011146656 -0.036981348 -0.13344836 -0.08692878 -0.017201502 -0.19631705 -0.00022127753 -0.15124597 -0.008209053 -0.073466904 -0.009468116 -0.19276272 0.003336203 -0.3367535 0.090060696 0.060053345 -0.011886187 0.15235814 -0.09514394 0.3951572 -0.22720172 -0.14277224 -0.050865352 -0.031649977 0.1098088 0.15425175 0.043897003 0.1893055 0.18802078 0.11783835 0.037812505 -0.21516623 0.25757903 -0.038389947 -0.20788054 0.005094457 0.2040419 -0.015815903 -0.16950287 -0.039874863 0.011984089 -0.17717494 -0.14409007 0.08921008 0.0029957287 0.11521095 -0.1117798 -0.08004072 -0.10774095 0.13680856 0.29538417 -0.11651855 -0.053504594 0.09245155 0.014124295 0.27862358 0.25172046 -0.17592779 0.20587459 0.059232026 -0.12755907 -0.106816486 -0.20232359 0.06832429 -0.0016024333 0.26265547 -0.040812824 -0.17929848 -0.21948057 -0.056113835 -0.1761175 0.056952793 0.20150483 -0.15896997 0.2681016 0.019418346 0.09052709 -0.17958385 -0.13209106 -0.2273168 -0.13574962 0.2988222 -0.21812703 0.085685216 0.15503868 0.0014948399 0.16019017 0.1803564 0.02962479 0.15870376 0.20851664 -0.2603376 -0.044757135 -0.07142741 -0.110162616 0.029460102 -0.03967563 -0.20834848 -0.05939758 -0.24359517 0.062134158 -0.0931631 -0.13377099 0.37240535 0.3309321 -0.045050826 -0.27777308 0.05744028 -0.10215258 -0.52482194 -0.03414054 0.12257457 0.03402413 -0.07451413 -0.037476834 0.12892362 0.0916662 0.067659706 0.04268905 0.17260282 -0.2906079 -0.031718813 0.21865602 -0.012188186 -0.12654404 0.096972115 -0.1587921 -0.051650133 0.04649038 -0.43498254 0.03664444 0.05295641 -0.019813899 -0.01680154 0.13404185 -0.19531885 0.21432672 -0.10571413 -0.066836745 0.09065665 -0.06558208 -0.010075893 -0.052530233 0.01674855 0.10112027 0.06138384 0.091672234 -0.07981398 0.17602704 -0.24806133 0.10710587 0.15073545 0.1947919 0.05338387 0.15661669 -0.10076098 0.10082024 -0.15873654 0.086201146 0.03567055
中介机构 0.33545324 -0.03355168 -0.028463744 0.16215675 0.14357732 -0.112547554 0.1446053 0.12171398 0.080310635 0.04793808 -0.12708844 -0.20015065 0.03694321 -0.16749103 0.044365745 0.03183713 -0.07575849 0.048612136 0.13619097 -0.15631494 0.06375893 -0.27670985 0.30394712 -0.16959932 0.10271593 -0.069888875 0.0880159 -0.20352599 0.25201145 0.26464844 -0.0038646157 0.33326012 0.012761972 -0.2468225 -0.095593885 -0.31650785 0.10083525 0.3478886 0.07146801 0.07151543 0.092803754 0.02730834 0.23008512 0.27054304 -0.21394654 -0.15129088 0.21197188 0.076561466 -0.106356375 -0.090948604 -0.45214045 -0.10920336 -0.0685874 -0.050202366 0.09806817 -0.083944455 -0.26240435 -0.002908394 0.05930018 0.05221891 0.032530125 -0.08428342 0.15823884 -0.09270254 -0.056569133 0.23987867 0.026674373 -0.10295031 0.24185342 0.06194554 -0.029371839 0.26130155 0.22575057 -0.14982444 -0.04122292 -0.17188203 0.10005131 0.058341004 -0.20563874 -0.21696639 0.13964188 -0.13610512 -0.28678155 -0.102027625 0.095019355 0.03067986 -0.023600377 -0.15921022 0.091246985 -0.23930432 -0.09217986 0.057571083 -0.020197695 0.006447888 -0.020910759 0.21112908 0.40449694 0.029282518 0.22855844 -0.08791951 -0.053905975 0.082128614 -0.225307 0.008826177 0.113572545 -0.19577922 0.12041398 -0.09657441 -0.17524488 -0.08923759 -0.10221716 0.21470134 0.09574931 0.04350806 -0.0011435286 -0.38822094 0.068477675 -0.24846958 -0.12248834 -0.12995364 0.10422521 0.320256 -0.15630715 -0.019325223 -0.113493904 -0.07879655 0.3383445 0.08249692 -0.10874282 0.019863214 0.11431027 -0.03726602 -0.061398 0.15657313 0.22544609 0.03457113 0.018682305 -0.16798258 -0.21671745 0.036313295 0.06664741 -0.07675395 -0.11340778 0.1171906 0.16248007 -0.050988287 -0.1250494 -0.05333706 0.134315 -0.24585792 0.00908988 -0.05482569 0.23019032 -0.035653323 -0.06476816 0.046548996 -0.08709231 -4.5181012e-05 0.04098381 0.27987868 -0.28859827 0.05776864 0.20355007 -0.13656229 0.33157423 -0.12666546 -0.05899987 0.052171417 0.14946073 -0.1432069 0.13208878 -0.033733644 -0.009506629 0.20150304 0.11017953 0.102794394 -0.06256466 0.10939425 0.05582791 -0.024929905 -0.10182953 0.07750655 -0.23335688 -0.027489293 0.076567024 -0.051912844 0.33769137 -0.251664 0.013472757 -0.12875538 -0.10840495 0.14896743 -0.066659704 0.22746447 -0.07576854 -0.08049906 0.4447552 -0.41513705 0.16437109 -0.020917283
停车场出入口 0.03736947 0.059613373 -0.0957631 0.07762101 -0.11010853 -0.060726948 0.01737881 0.09766089 -0.090140775 0.015550567 -0.062030375 -0.058444813 0.0029105 -0.34564927 0.27811196 0.046951022 -0.10435668 -0.1439521 0.021990009 0.0019588857 -0.21617083 -0.07529742 0.24082342 0.07443941 0.17506526 -0.043689936 -0.26245663 0.23799908 0.087848164 -0.0053674066 -0.15621121 -0.030702693 -0.119618736 -0.07831121 0.049936358 -0.100209385 0.1924239 0.16943419 0.06432604 -0.06642688 -0.059121065 -0.17429905 -0.07529741 -0.009615673 -0.3571048 -0.0011650479 -0.056029297 0.17285797 -0.20427486 -0.22364552 -0.12663983 -0.06607013 0.07960708 0.09792738 -0.11076742 0.08079863 0.027417818 0.13106777 0.048251588 0.17180434 -0.119556144 -0.056572203 0.09363605 0.05593132 -0.025387429 0.24744011 -0.039195266 0.25275657 0.2114173 0.11967051 0.062058426 -0.18319747 0.20635916 -0.1932264 0.20952694 0.12098286 0.15756224 0.0055689965 -0.23855902 0.079103656 0.024491409 0.033780836 -0.07997213 -0.037824795 -0.030354729 -0.0773719 -0.061350334 0.046458647 -0.21701369 -0.049466133 0.13801967 -0.15049851 -0.12056334 -0.14185509 -0.058578722 0.1884013 0.09764998 -0.10552124 0.0998677 -0.16620995 -0.060855363 -0.04617693 -0.19002733 0.05539828 0.0151936095 -0.054236047 0.097567625 -0.18570663 -0.0954599 -0.22592558 -0.13405518 -0.06910209 0.16752283 -0.0031386218 0.08785909 -0.026412388 -0.37498268 -0.14084025 -0.14604028 -0.19603026 -0.056172337 0.2755594 -0.11772303 0.43143138 -0.11693364 0.07437865 0.07567615 -0.06516371 0.049979772 0.20442222 -0.010349177 -0.2614046 -0.086510226 -0.004092212 -0.19929294 0.10674894 0.0659956 0.052782092 -0.052089218 0.009207428 0.031288736 -0.17265065 -0.17710494 0.1503256 0.39644122 -0.10769628 -0.0008752252 -0.16299507 -0.21414462 -0.43818408 0.12861973 -0.16448194 0.103968635 -0.16504492 -0.16905136 0.1558601 0.03103465 0.016597973 0.0907839 0.30213243 -0.26630017 0.0442744 0.08922185 -0.22864051 -0.043090425 -0.054212786 -0.2892172 0.01298275 -0.06530733 -0.17537817 0.03854697 0.041114 0.14177841 0.023611717 -0.12579319 -0.19270326 0.04046163 -0.073264234 -0.02047538 -0.004909671 0.0221672 -0.14614025 -0.048924033 -0.07236511 0.093553 -0.06450341 -0.17387378 -0.102919914 0.08779422 0.34862882 0.013459261 0.09795194 0.087479815 0.10558385 -0.11206492 -0.105895475 0.0668314 0.023995794 0.07274523 -0.007527658
特色/地方风味餐厅 0.07077914 -0.31272072 0.009784146 0.16813526 0.18493287 -0.03528929 0.37119064 0.2399497 0.09569967 0.058993246 0.039059043 -0.1347536 -0.058741886 -0.081991434 -0.028565152 0.13641478 0.02936961 0.038694832 0.0046480303 -0.19004337 0.049805596 -0.15923232 -0.099050514 -0.22732575 0.39873853 0.056548696 -0.014430657 0.014842902 -0.108108886 -0.15886204 0.06431657 -0.050339647 0.09765641 -0.12466706 -0.12138976 -0.16268684 -0.0031863258 -0.012550507 -0.12723306 0.0039218506 -0.30763468 -0.12910591 -0.09891221 0.0848092 -0.21041696 -0.18571778 -0.19455123 0.027643517 -0.23664582 0.060285315 -0.19220144 0.073325515 0.054174695 0.21687129 0.39762217 -0.05829893 -0.020314287 -0.11910616 0.22366567 0.34729964 0.09667736 -0.1670458 0.2957657 -0.00033933728 -0.18696213 -0.0482415 0.08836901 0.14959815 0.22267397 0.30948362 0.28427577 0.07243291 0.27003798 -0.09938164 -0.0054534744 0.17537193 0.07587646 0.105840385 -0.10684083 -0.03394301 -0.0368054 -0.25543857 -0.25396892 -0.05347494 -0.15659468 0.01329502 0.15179248 -0.14799555 -0.04955714 -0.32648963 0.10022078 -0.11856499 -0.27968162 0.07989714 0.095463365 0.09570777 0.15712477 0.06797454 0.25703928 0.06654828 -0.10930029 0.14195365 -0.3528462 -0.010015339 0.023687465 -0.0039701266 0.10730221 -0.12414291 -0.122554086 -0.28298885 0.05207037 0.056343246 0.2284321 -0.15202023 0.087691054 -0.15234776 0.004871889 0.010452672 -0.030518314 -0.30213073 0.110096514 0.119875945 -0.22544344 0.25622538 0.13232149 -0.1373661 -0.10247981 0.25647497 0.08098848 0.33414 -0.0013735867 -0.27523953 -0.10202953 -0.14064215 -0.22112146 0.022462606 0.04651814 -0.099169254 -0.044761434 -0.1277533 0.009686354 0.09347152 0.06341943 0.023253229 0.08139777 -0.21835507 -0.1136043 -0.31020844 0.3094404 -0.18764149 0.042014018 0.113782205 -0.09595214 0.20336361 -0.17669758 0.012331763 0.04633919 -0.12103696 0.26526564 0.08274368 0.044251945 -0.14159329 0.1159616 -0.0047561247 0.2956297 -0.06682184 -0.019575432 -0.01960498 -0.030189795 -0.07078356 0.2685229 0.08203931 0.24013625 0.21790466 0.04743043 0.13245802 0.005455243 -0.17904823 -0.13135703 0.15941642 -0.14380951 -0.07039564 0.12986274 0.0005425534 -0.13951968 -0.22841635 0.35362756 0.19418639 0.04621802 0.05032899 -0.13420168 0.1962516 0.07807513 0.038063556 0.043814123 -0.0036087502 0.28903958 -0.11839691 0.17641436 -0.00011001291
政府机关相关 -0.13688378 -0.09500234 -0.0963748 0.13393345 -0.046334468 0.14140242 0.13259831 0.38957945 0.30744594 -0.041531116 0.12073462 -0.043067716 0.022263817 -0.031233005 0.072208084 -0.010987955 -0.04275911 0.07869434 0.03516402 -0.056975663 -0.047178924 -0.014474455 0.03575823 -0.036438145 0.30962768 -0.1510491 -0.17243649 0.10080176 0.16818337 0.2118144 -0.017450994 0.21437813 0.013927706 -0.21802567 -0.088711515 -0.31204212 -0.018091416 -0.092461176 -0.011447098 -0.050641898 0.22118086 -0.13837261 -0.10698433 0.01664208 -0.25714555 -0.18189426 -0.12406154 0.18538567 -0.1404955 -0.19302732 -0.13705897 -0.1490936 -0.1653596 0.046859913 -0.038751576 0.030199168 0.21670648 -0.088252306 -0.014209656 0.0469457 -0.39065704 -0.03541236 0.28484207 0.18218546 0.08348137 0.23782608 -0.175927 0.042230472 0.13393524 -0.27088472 -0.08602051 0.060540546 0.14973773 -0.025596477 -0.09006168 -0.4005613 0.18307108 0.14754298 -0.32266298 -0.031829815 -0.17281035 -0.24956259 -0.3303248 0.18825653 0.066892534 -0.21812011 -0.17358233 0.1746934 -0.22714232 -0.096131 0.0036128762 0.07264427 -0.038409643 -0.17521667 0.05883092 0.19971842 0.016566008 -0.057532206 0.024980213 0.07583764 0.10692876 0.061727025 -0.1044148 0.021917261 0.19324084 0.26450053 0.08634565 -0.16309053 -0.07955593 -0.22182168 -0.062313322 0.13257979 0.108826704 -0.06863467 -0.17797208 -0.0016745662 -0.06046634 -0.19412936 -0.08894523 -0.0016659957 -0.026313541 0.07413691 0.19845572 -0.021655573 -0.19082436 -0.24831101 0.2590128 0.116508774 -0.059795782 0.4637859 0.18290536 -0.27595267 0.07857822 -0.17436858 -0.09710378 0.40106446 -0.115211755 -0.14931633 -0.052028388 0.07270466 0.044042025 -0.34312874 -0.1731671 0.1485717 -0.08432563 -0.1253828 -0.16207105 0.04144727 0.05837479 -0.28280953 0.042156667 0.11226834 0.16225442 -0.31867623 -0.1690054 0.06482219 -0.06396046 -0.0748216 0.32069615 0.23017196 0.07682646 -0.27070075 0.107955135 -0.15449557 -0.04274518 0.22690246 -0.03811036 -0.123979434 0.032741297 -0.3272838 0.11381249 -0.12746279 -0.09436549 0.27465627 0.24474004 -0.022922797 0.047627185 0.1790709 -0.009991641 -0.05164015 0.057042412 -0.014564552 -0.029838616 0.10966836 0.027230859 -0.19284064 0.17721952 -0.07229645 0.17292841 0.13017212 0.1441531 -0.24359775 0.11817598 0.0076459246 -0.23082967 -0.28489 -0.03987522 -0.15110622 0.117414206 0.0570395
摄影冲印 0.020564493 -0.009508958 -0.12887716 0.12961262 0.077581204 -0.14572608 0.05221125 0.3467224 -0.039263863 -0.09847835 -0.22606438 -0.19637597 0.029796371 -0.039181996 0.03716515 0.0456866 -0.04194377 0.35115427 0.019263953 -0.0057791555 0.059637908 -0.20460813 0.07916931 -0.019938646 0.003986224 0.10782612 -0.25867334 -0.05839731 -0.14875253 -0.0050506336 0.00449399 0.10860137 0.12028288 -0.24810864 0.019813472 -0.04082978 -0.21484151 0.36171365 -0.010430855 0.03140814 -0.16414782 -0.2626038 0.22486457 -0.078165606 -0.15707783 -0.01996523 0.009366215 0.23080693 0.0008762718 -0.113127574 -0.38651708 0.0795652 0.070715144 0.18775336 0.14644414 -0.012747549 -0.2084812 -0.11443502 0.013965049 -0.21901558 -0.017403457 -0.30118904 0.10946493 0.022396637 -0.18437223 0.102912344 0.30848706 -0.026298082 0.102120355 0.12429714 -0.007968391 0.070472315 0.11251087 -0.03250028 -0.23386237 -0.08188524 0.27013206 -0.20995606 -0.09150668 -0.32190135 0.024794288 -0.10512772 -0.30643603 0.049676314 0.11693288 -0.05168555 -0.08698423 -0.19122574 0.11088806 -0.17608039 0.15624239 0.13418277 0.0180646 0.15616466 -0.15749462 0.33896515 0.047195558 -0.106865406 0.025524773 0.13692951 -0.0499336 0.05485125 -0.2900956 0.119733 -0.22207278 -0.17022367 -0.07723994 -0.23482853 -0.2130832 0.0033387283 0.1050617 -0.21942413 0.21328102 -0.016611848 0.1757612 0.18173467 0.35779193 -0.047098633 -0.11672678 -0.15554117 0.032289088 0.19541317 -0.106165946 0.12527552 -0.201126 -0.13009703 0.0826026 0.057377003 0.03210349 0.07956499 -0.03632231 -0.15851584 -0.014077906 -0.1488267 0.017919974 0.16541733 -0.11404855 -0.32828 0.026486522 -0.030857934 0.0819636 0.0886766 -0.0690156 0.05150772 0.11376888 -0.009862167 0.08498341 -0.06656654 0.20315933 -0.08356658 -0.004560265 -0.13669187 0.20745872 -0.07753303 0.067930475 0.1075183 -0.097158544 -0.13325168 -0.011624868 0.009204941 0.17660205 -0.14762568 0.31669182 -0.23543076 0.15361659 -0.18560715 -0.21158248 -0.22499926 0.0031097527 0.14488003 -0.011198713 0.032689862 0.14473186 0.17315821 -0.23905429 0.0008865898 -0.13287088 -0.06123449 -0.06053085 -0.05604161 0.05370963 -0.09928407 0.08199791 0.090896845 0.0015341651 -0.18380381 0.38494426 -0.017800426 -0.035832793 0.15366265 -0.048640776 0.29586482 -0.07510231 0.25624147 -0.014701515 -0.22277322 0.25756097 -0.077361 0.084069945 0.025634978
金融保险机构 0.21411678 0.06571514 -0.025826536 0.04722699 0.20810089 -0.28480503 0.16185564 0.23991562 0.31907675 0.007827301 0.040616315 -0.098398775 0.024536677 0.053951833 -0.059854764 -0.075036906 0.02510018 0.15212952 -0.0650065 -0.043800365 0.057536468 -0.18588094 -0.042838987 -0.07362769 0.05029212 -0.11258869 -0.14478499 0.09023107 -0.1729471 0.27939948 -0.18160331 0.33841842 -0.02293239 0.043486957 0.031774033 -0.27465218 0.30539924 0.07179427 0.12841761 -0.37723073 -0.25856277 -0.2699887 0.34326905 0.14902867 -0.37087485 0.026982252 0.2588904 0.16002046 -0.16786774 0.07154017 -0.38708308 -0.07536599 0.4633581 -0.022634476 0.14534454 0.004607003 -0.19487913 -0.11794481 0.022596754 0.14822285 -0.12512128 0.022426993 -0.19721925 0.067229055 0.036674473 -0.036247395 0.06663037 0.18210766 -0.06949845 0.053564757 -0.07334541 0.0605217 0.037050806 -0.3901577 -0.3087799 -0.13246109 0.21347733 0.067553684 0.54007095 0.14717126 -0.1052559 -0.14175254 0.01735158 0.29728422 0.13214606 -0.29556546 -0.36657727 0.31941113 -0.0740472 -0.014360019 0.052448064 -0.29402173 -0.17821977 0.016106075 -0.09943305 0.09373215 -0.06903561 0.013983985 0.079051875 -0.39415944 -0.012241625 0.242495 -0.0025684175 0.10226271 0.3438945 0.004839768 0.08289995 0.046233997 -0.026759608 0.13335003 0.098194614 -0.18016854 -0.06718413 -0.4266877 0.012357123 0.118172795 -0.027662618 -0.17897534 -0.24256782 0.07118125 -0.12119564 0.44804573 -0.23195124 0.44755915 0.095440626 0.01946672 -0.0037244628 -0.13015379 -0.2113909 -0.25100598 -0.28956434 -0.23038949 0.06292951 0.09964013 0.16919546 0.17967771 0.08464798 -0.11935303 -0.27518907 -0.15997934 -0.06836952 -0.23330593 -0.02433469 0.12043686 0.38526493 0.0013336856 -0.17285708 -0.22361723 0.32095784 0.05470739 0.2975462 0.038914967 0.023754021 -0.1679572 -0.33990896 -0.009099253 -0.3623394 0.17009386 -0.15332197 0.18531147 0.004560881 0.15067838 0.007680142 -0.07144257 -0.0023454742 0.32385042 -0.06387082 0.070157 -0.2816268 0.042769164 -0.08114221 0.030456446 -0.12202801 0.009880066 0.00094581966 0.023141533 -0.11730427 0.23124462 0.33812442 -0.26811638 0.17986503 -0.22100678 -0.06752823 0.10924197 -0.033709105 0.13611731 0.17360903 -0.14152113 0.01118846 -0.27046362 0.11893308 0.024019558 -0.024312649 0.02271905 -0.12233537 -0.22551446 0.18634132 -0.38488528 0.22175635 -0.20542721
物流速递 -0.052609976 -0.09221381 -0.19469108 0.17804646 0.11442106 -0.009105233 0.25076798 0.36193386 -0.066729315 -0.013640199 -0.08098885 -0.08655268 0.10917593 -0.1081471 -0.20441766 0.20454498 -0.17774235 0.15564536 0.09730083 0.008251221 -0.21367763 -0.10761859 0.042132813 -0.3509619 -0.08355087 -0.051966976 -0.19605397 0.24903238 0.14347482 -0.020818658 -0.0023134758 -0.01660419 -0.032383755 -0.07053278 -0.11939692 0.023951337 0.2590332 -0.05036847 0.0832055 -0.10265246 0.11587289 -0.27408585 0.06804173 -0.09148448 -0.15844485 0.08768858 -0.02616161 0.21823224 -0.2181783 -0.3186574 -0.32786435 -0.06116066 -0.053463057 -0.049722277 -0.02208241 -0.28067786 0.030268352 0.13336733 -0.12780206 -0.07590474 -0.03692255 -0.097116165 0.25088546 0.2204239 -0.32857424 0.11977656 -0.13732515 -0.06689629 -0.0066144248 -0.056884013 -0.18276979 -0.20483504 0.18211544 -0.08437327 -0.07740048 -0.24168564 -0.0074971146 -0.07811019 0.002788355 -0.023187174 -0.072326705 -0.113043636 -0.024663435 0.17730668 -0.056316048 -0.11165622 -0.065313295 0.099182755 -0.2537323 -0.075591676 0.20510714 -0.07369978 -0.0685303 -0.076236375 0.19092192 0.20881131 0.18540052 -0.08772425 0.31725347 -0.2615006 -0.03969398 0.15590711 -0.078437306 -0.053397056 0.018807042 -0.12596026 0.04339514 -0.13621238 -0.21803847 0.16553953 -0.031134129 -0.28326154 -0.085170954 -0.07338515 0.17556138 -0.029278815 0.12923464 -0.121006526 0.07974545 0.08898419 -0.05145247 0.23465277 0.005116018 0.017344553 0.17612804 -0.19481316 0.12583846 -0.07837147 0.067629464 0.009483604 -0.082594246 -0.31340995 -0.0107534975 -0.094907664 -0.089885846 0.16446252 -0.29394838 -0.055100296 -0.17837587 -0.21152428 -0.1745689 0.042794626 -0.060196213 0.2450577 0.24554299 -0.3439826 -0.2275484 0.0621356 0.15878528 -0.3636552 0.09321121 -0.002087677 0.03768517 -0.03551742 -0.22745915 0.11229353 -0.035363667 -0.18161154 0.11133555 0.44003436 -0.1133089 -0.0836906 0.09505298 -0.21931344 0.14899085 -0.1813516 0.21043392 -0.052624986 0.08372247 -0.22638729 0.11129666 0.03361543 0.23631066 0.13336691 -0.024939302 0.05009193 -0.14591695 0.33986512 0.09268056 -0.14232366 0.038440585 -0.16006993 -0.007176179 -0.040802766 0.21731642 0.15090853 0.15262398 0.095739074 0.039061505 -0.018744448 0.15761527 0.079856485 0.30013713 -0.055558078 -0.2566868 -0.17921357 0.082474604 -0.34121424 -0.10022687 -0.02478532
超市 0.23160093 -0.3577664 -0.03406808 0.17068714 0.37985337 0.13038196 0.21156107 0.27892086 0.0040355953 0.02235154 0.119710706 -0.20566566 0.08136597 -0.09657729 -0.17179841 -0.14804195 -0.19655666 0.10734783 -0.047861602 -0.09918503 -0.033218738 -0.22107236 0.09978126 0.08155294 0.1478915 0.01505342 -0.005624165 0.018288925 0.07810851 0.039323855 0.020029662 0.018706774 0.20261803 -0.37024882 0.070030995 -0.27316153 -0.091879725 -0.04242956 -0.1970128 0.11607217 -0.20023657 -0.047946136 0.043967366 -0.008701778 -0.05136714 -0.15658645 0.09451131 0.07806373 0.113448866 0.059035406 -0.242556 -0.122184224 -0.14151537 0.17831667 0.12710153 0.05322137 -0.28563225 -0.03010361 0.073835425 0.097902924 -0.112638995 -0.08552577 0.1013505 0.059118334 -0.037951205 -0.07004863 0.059431456 0.20339717 0.16946225 -0.109613635 -0.0019071882 -0.15307014 0.11488699 -0.223244 0.20898728 0.016795572 0.10544782 -0.06935306 -0.17185111 -0.0125509035 0.080561616 -0.25364983 -0.09482558 0.052533492 0.04570781 -0.16534412 0.045483753 -0.1167742 -0.2618385 -0.33849564 -0.018383795 0.18142423 -0.081348844 -0.04307835 0.15720277 0.20262146 0.011414848 0.17825714 0.20229295 -0.09708253 -0.08735965 0.05088266 -0.046169955 -0.0522901 0.04782363 0.004386376 -0.03644691 -0.15645851 -0.44407964 -0.19549741 -0.058951657 0.27059913 0.4453713 -0.09483914 -0.008512393 -0.23404586 0.033881813 -0.22272187 0.18088889 -0.042218138 0.32121927 0.13643236 -0.124418 -0.07579187 0.050990555 -0.010795712 0.06451743 0.23422004 -0.053553294 0.29972512 0.34348965 -0.48607007 -0.101763494 -0.23168534 -0.0691415 -0.19237608 0.061050344 -0.33475703 -0.057692304 0.12764676 0.115703836 -0.015947962 -0.090909675 -0.14438155 0.26797387 -0.023561886 0.1494078 -0.00790639 0.15059674 -0.28428397 -0.040648907 0.19175789 -0.16974318 0.010100069 -0.38718304 0.13490643 0.013970294 0.026096756 0.045104828 0.16248895 -0.27960408 0.09484125 -0.048830803 -0.15653583 0.35083506 -0.18533419 0.11515417 0.028121354 0.2096381 -0.18884192 0.15980846 0.21115135 0.03529758 0.27583334 0.08713727 -0.0012984185 -0.07480137 0.24560603 0.29050156 -0.20154853 -0.20466612 -0.1640948 0.062296838 -0.08927957 -0.18009694 0.06178624 0.156037 -0.056854535 0.031454965 0.1523913 0.0043346346 0.19507569 0.046278737 0.10107351 0.110727176 -0.0975499 0.1321218 -0.10838262 0.3250758 -0.110699765
医疗保健服务场所 0.019221704 -0.0017889182 -0.092336655 0.24779008 0.12702 -0.11642284 -0.13087982 0.26902398 0.29670236 0.12706575 -0.10654066 -0.21901044 -0.02796301 -0.1042665 0.18634246 0.16374809 -0.05236949 -0.06538302 -0.048383333 0.013735715 -0.12019162 -0.10017762 0.056698713 0.13193451 0.19638436 -0.080663405 -0.18013538 0.109685585 -0.04158809 -0.07088735 -0.09711775 0.005087724 0.11375816 -0.23050274 0.19211242 -0.11586163 -0.2464017 0.004375661 0.10700382 -0.13889039 0.012174946 0.022342796 -0.018137062 0.2540398 0.19938861 -0.21189603 0.0849679 0.087198 0.012814864 -0.14744863 -0.20231383 0.0011259502 0.0700811 -0.06766874 -0.0723983 -0.039892368 -0.016764792 0.033516612 0.01755818 -0.03179013 -0.02624926 -0.18056278 0.2605017 0.0047774417 -0.15266228 0.29051685 0.062985614 0.14352775 -0.11872169 0.15317415 -0.14954884 0.0847365 -0.016806817 -0.05052258 -0.09019647 -0.045739204 -0.078653924 -0.13577743 -0.09803832 -0.20534576 -0.17423995 -0.13867144 -0.33503342 -0.24105136 -0.30498165 -0.1478461 -0.20836884 0.23857358 -0.064110726 0.09347385 -0.25874934 0.3158066 0.250852 0.15141915 -0.07705996 0.29448915 0.43377206 0.0895406 -0.14496155 -0.31104633 -0.37400326 -0.007643967 0.031762395 -0.020837957 0.18079557 -0.09151828 0.11375387 -0.4282702 -0.24797326 -0.10563089 -0.045605384 0.1489567 0.1460673 -0.09084729 0.22877324 -0.19505621 0.06563567 -0.25125656 -0.026183391 -0.17118196 0.030427588 0.09707674 -0.08213632 0.16216683 0.024134314 -0.18291248 0.2129167 0.20584303 -0.16505502 0.18185641 0.11413771 -0.06500908 -0.3941513 -0.046400946 -0.19235936 0.07948555 -0.17294614 -0.09817963 0.025773233 -0.1572535 0.0728057 -0.24171992 0.012245783 0.27537644 0.1546049 -0.31705996 -0.11342012 0.019514654 0.18677205 -0.17765407 0.14075015 0.09354222 0.13574898 -0.03857041 -0.17317845 0.25581834 0.24205069 -0.15864827 0.089948304 0.18495196 -0.05092271 -0.0673172 0.06118189 -0.021676177 -0.1038825 0.08208436 -0.22051252 -0.10795774 -0.20841534 -0.18861537 -0.038920317 0.071007885 -0.11339108 0.2550641 0.04317429 0.31583786 0.21357359 0.07724934 -0.026765063 -0.04135085 -0.1146494 0.030916363 -0.091604136 -0.11733155 0.15199631 0.006056264 0.17964818 -0.16616677 0.2296712 0.13674654 0.15869866 0.29012942 -0.0015129485 0.01708652 -0.12603569 0.05085183 0.22384065 -0.5472508 0.12248942 -0.14420989
体育休闲服务场所 0.16743006 -0.27628902 -0.19666387 -0.010299639 0.02371851 -0.09068603 0.1335003 0.25007463 0.10338423 -0.103455015 -0.17012304 -0.03663301 -0.046240058 -0.051687587 0.035531823 -0.09487936 -0.033755716 0.120843045 0.12528928 -0.24441507 -0.016414074 -0.16616385 -0.12640907 0.21508093 0.18294744 -0.2607916 -0.20272222 -0.13250385 -0.06436585 0.036963798 0.06878485 -0.13624522 0.17714825 -0.23661959 0.14956076 -0.35566977 -0.093355834 -0.07451386 0.26964384 -0.22676931 -0.13048075 -0.38183674 0.1005785 0.22565009 -0.17878677 0.052241508 -0.096362025 0.21137944 -0.19341488 -0.05725864 -0.56361777 -0.011002731 0.07796932 0.06459145 0.2811935 0.100372 0.0027688374 -0.159446 0.06686479 0.19429564 -0.088960186 -0.16177681 0.012293826 0.24360746 0.10607417 0.0034981193 -0.0038759608 0.38810527 0.20063423 0.10654128 -0.09519452 0.14754093 0.10587572 0.018426849 -0.08444278 0.14979228 -0.013156107 -0.055401593 0.141129 0.11712422 0.17074156 0.15679985 -0.16232328 -0.036577646 0.08654935 -0.19617279 -0.15725459 0.07852187 -0.07885496 0.06430131 0.13506992 0.10554603 -0.046069928 0.05768309 -0.018689342 0.19085632 -0.014373899 -0.18878852 -0.028365606 -0.050235 -0.11910216 0.17712942 0.11384897 -0.1696036 -0.041098833 0.12010401 0.15205663 -0.25763115 -0.35798854 -0.1794445 0.11904541 -0.020904236 0.26944572 0.08652237 0.11130556 -0.083795965 0.017139072 0.015248667 -0.040984835 0.114280224 0.13819622 0.13125734 0.038754974 0.06938361 0.049109187 -0.22670703 0.108770266 -0.020270724 0.10700404 0.11508981 -0.32881942 -0.08018735 -0.17794386 -0.08617569 -0.022833392 0.007642895 -0.16329938 -0.3655413 -0.013604963 -0.08964701 0.28220016 -0.09854349 0.05211859 -0.025283491 0.054909784 0.018842628 -0.21447612 0.029944262 0.031720918 -0.020803316 -0.050630424 -0.08244246 0.1289748 -0.084276214 0.038461417 0.09061197 0.26577097 0.24405746 0.04621308 0.11663533 0.016622368 0.03016449 0.06530736 -0.036786836 -0.008750772 -0.100299 -0.087866835 -0.04417402 -0.2827446 0.0684569 0.045187455 -0.12871826 0.16475937 0.32781062 -0.094027594 -0.003266398 -0.079843625 0.17031476 0.35667455 0.03511955 0.16441596 -0.17354724 -0.07488226 0.08572998 0.0812787 -0.25875393 0.45019045 0.13737825 0.116929844 0.27497673 -0.11876074 0.0931097 -0.2169568 -0.034270473 -0.2559558 0.04896004 0.19096433 -0.15757611 0.02441053 -0.010617329
家具城 -0.07768334 -0.17366815 -0.08415327 0.019311594 -0.20419742 0.21164232 -0.24650076 0.10473609 -0.028930904 -0.2986646 -0.16410896 -0.2194182 0.019890944 -0.08718065 0.2678633 0.06465815 0.026343133 -0.014476055 0.30546916 -0.13481133 0.20263298 -0.15678966 -0.16101843 -0.2869799 0.22749226 0.069613785 -0.11216875 -0.20586686 -0.25848565 -0.4583901 -0.19681741 -0.0020779546 0.040603142 -0.35061687 -0.51832956 0.0017071355 -0.241576 -0.11095789 -0.38264182 -0.19457436 -0.08830449 0.06901408 0.36159417 -0.008795642 -0.30441496 0.10230347 -0.123520724 0.26069307 -0.00926628 -0.0928796 -0.661171 -0.7217525 -0.07446438 0.61443716 -0.1922456 0.020690868 -0.50642383 0.051409315 -0.015679419 -0.0031509935 -0.4075165 -0.23593289 -0.1113452 0.46101785 -0.1891956 0.07306901 -0.110432126 0.17511682 -0.13832575 0.13799009 0.064385876 0.118459485 -0.06298351 0.32613266 0.5413143 0.1640565 -0.1801235 -0.3053446 -0.09138223 0.0059717526 -0.15796247 -0.33168703 0.18047442 0.47026074 0.093955286 0.022486582 -0.2891729 -0.3788907 -0.4814869 -0.44640982 0.086410806 -0.1615856 -0.51903987 -0.15718211 0.05248141 -0.03712361 0.11663873 -0.11485523 0.15190984 -0.14532124 -0.30068803 -0.04847358 -0.3064356 -0.25362003 -0.33225727 -0.044697247 -0.47769257 0.092230484 -0.017916605 0.20576102 -0.03484342 0.16142356 0.20635884 0.025181523 0.19737563 -0.25906396 0.01832831 -0.08431447 -0.2832873 -0.010050533 0.12951493 0.17521846 0.15672378 0.2791832 -0.047408912 0.07472141 0.1184675 -0.0340783 -0.19099715 0.1028874 -0.25173092 0.24118969 -0.5657942 0.38564482 -0.034025695 0.13224007 0.018855905 -0.091061465 -0.07374652 -0.11354248 0.20111075 0.3162625 0.01910742 0.07078616 0.22339301 -0.06675688 -0.025542684 0.24609889 -0.5763574 -0.53237575 0.50844955 0.00070549507 -0.098621376 0.057347205 -0.3935263 -0.30780876 0.17463918 0.18762681 0.22968034 0.061058026 0.47909746 0.1303066 -0.07315882 -0.05918185 -0.24739935 -0.09690235 -0.40717566 -0.006627211 -0.06654843 0.14361632 0.13172165 -0.21705346 -0.0865448 0.2336348 -0.38481176 0.29814735 0.015044456 0.14959013 -0.17431217 -0.50287294 -0.28422254 0.10564757 -0.41101274 0.08610117 0.11235815 0.12445095 0.24145402 -0.0054943226 -0.2103359 -0.011494871 -0.21028465 0.16058707 0.3512659 -0.3414767 -0.38706386 -0.22382797 0.17850564 0.045654234 0.39705643 -0.11744817
道路名 0.14970118 -0.10462077 -0.31500548 -0.09249334 -0.0341365 -0.08896035 0.21401742 0.0030320846 0.09306946 0.060442388 0.20746166 0.23829836 0.20483227 -0.2947603 -0.073975675 -0.0019681822 -0.052128296 0.21921358 -0.17908804 -0.17754209 -0.031112792 -0.14106596 -0.04063538 0.0378821 0.24944957 -0.042954206 -0.1400898 0.10397753 -0.06750021 -0.16544414 -0.2412096 0.05865294 -0.07039248 0.00065056747 -0.24577346 -0.14366725 0.03884299 0.19889814 -0.05416001 -0.035029076 -0.049861178 -0.27689007 -0.070431694 -0.22552735 -0.14746429 -0.047174286 -0.06069273 0.14810354 -0.18563789 -0.05330062 -0.033713985 0.2433821 0.061239716 -0.17015652 0.052578844 0.1651438 -0.023069404 0.02186577 0.07611978 -0.0061229733 -0.27006155 -0.16005099 0.06318793 0.005287239 -0.15735942 0.26352665 0.0226166 0.49764976 0.24650906 0.09311952 -0.060306527 0.16233698 0.10527235 -0.1710884 0.010439649 -0.08873258 0.12520552 0.21045339 -0.13358653 -0.31998068 -0.022101978 -0.05920665 -0.15788043 0.11862153 0.16233763 0.04298283 -0.21867906 -0.0807168 -0.33271015 -0.021633267 0.18926436 -0.11432082 -0.16466849 0.07424533 0.031859856 0.16676004 0.31062925 -0.1647833 0.2580673 -0.104985185 0.0020179246 -0.0065620546 -0.19995405 0.092711665 -0.17261072 -0.020513164 0.017073588 -0.17507346 -0.24816705 0.03646053 -0.22686201 -0.103676826 0.081105 -0.10612466 0.10282454 -0.015561332 -0.22534634 -0.18409996 -0.14403099 -0.118603006 -0.044164766 0.2112555 0.08492799 0.1851565 -0.021745423 0.16237149 -0.04018924 -0.063270316 -0.10051784 0.20826763 0.23146315 -0.15082134 -0.3724034 0.008430077 -0.19408472 0.16169548 0.14493749 -0.16608483 -0.0098976735 -0.2184672 -0.09099411 -0.30808052 -0.08933341 0.11260192 0.22043994 0.034210023 -0.11684247 0.01899592 -0.1800756 -0.16357821 -0.23653488 -0.08270019 -0.016972072 -0.18997788 -0.2253843 -0.10655848 0.14916039 -0.043728027 -0.078064136 0.42556083 0.034936946 -0.14726163 -0.04129014 -0.3188393 -0.060089316 0.06015385 -0.20776959 -0.13553311 0.15859874 -0.2560826 -0.11009808 -0.23599865 -0.00518394 0.027041664 0.2552365 -0.18999794 0.15466644 -0.10095249 -0.14427929 -0.020490602 0.121673875 -0.24950647 -0.07189509 -0.040185615 0.12900305 -0.10887193 -0.023829931 -0.016417608 0.2286959 -0.30098018 0.046683606 0.0031402982 0.26919496 0.07715909 -0.24388209 -0.10322125 0.069017686 0.040447112 0.02929794 -0.20377801
健身中心 0.3258712 -0.30815074 -0.07061621 -0.017975055 0.19609635 -0.11350109 0.063522734 0.094937675 0.115016185 0.14982277 -0.31031162 0.098288566 -0.1669474 -0.18817613 0.35971627 -0.010810711 0.043148555 0.069572695 0.23803285 -0.3273676 -0.01756748 -0.229331 -0.10139865 0.057972427 0.06770694 -0.16348276 -0.31037945 0.0046572057 -0.0720033 0.15386194 -0.059395425 -0.2320035 0.16432145 -0.22511071 -0.09756893 -0.12717736 -0.09450497 -0.018604241 -0.026944743 -0.07382326 -0.23718439 -0.09803587 0.43848076 0.030702427 0.080778494 -0.33306336 0.16292548 0.16532041 0.21125354 -0.012559609 -0.31783378 0.21837658 0.19560449 -0.19685325 0.037372615 0.13273326 0.014584126 0.0020167918 -0.0066940533 0.044498015 -0.059671257 0.01471536 0.10315322 0.19399054 0.0391977 -0.09573785 0.032874092 0.26697552 0.10373904 0.3119204 -0.12995107 -0.027123107 0.09826821 -0.21379186 -0.14239311 0.053551845 0.3096514 -0.08942782 0.087171465 0.22493108 0.2239346 -0.24964653 -0.14104113 0.012023713 0.12623252 -0.19632955 -0.15207128 0.19196424 0.14265218 -0.17518613 0.13322763 -0.046871483 -0.057460472 -0.057642147 -0.03317445 0.12671524 0.019332916 0.031128379 0.03405336 0.07355252 -0.025344942 0.0737674 -0.075955026 0.056118708 0.10475644 -0.061523374 0.068465315 -0.16054052 -0.08565134 -0.0044455123 0.04008014 0.17073801 0.28750753 0.05171973 0.11039084 -0.009463881 0.092622176 -0.14327036 -0.20644231 -0.25095975 0.23334068 0.044791162 -0.09281796 0.11532269 0.073296264 -0.2152492 0.088928536 0.07555822 -0.13585879 0.08186035 -0.15690322 -0.04095975 -0.06111085 -0.088796005 -0.14926066 0.3020958 0.047924284 -0.22339173 -0.26355574 0.2629067 0.20185776 0.11516692 0.04217665 0.034958266 0.09765664 -0.18081874 -0.09274403 0.018993229 0.14082262 -0.14221193 -0.050328374 -0.21186036 0.0011551747 -0.19358447 -0.103826635 -0.030694414 -0.27570677 0.13006449 -0.009913338 0.084404916 0.12829635 -0.15831304 0.111779176 -0.17631884 0.23766598 -0.013617829 0.02488634 0.001064257 0.060243692 -0.14162475 0.18446785 0.120142385 -0.064985044 0.31281608 -0.07429578 -0.058954272 -0.07987705 0.07831978 0.19314708 0.07688884 0.17950664 -0.18939148 0.053942237 0.08867861 0.097346134 0.05573532 0.4674259 0.09497809 0.20143096 0.029256208 0.16223477 0.22757784 -0.09211151 0.045939725 0.13149607 -0.09763111 0.24973941 -0.17330779 0.029953249 -0.21364108
家居建材市场 0.10795251 -0.18822534 -0.32547304 -0.08293325 -0.2614242 0.069155924 0.22879508 0.035561465 -0.07541959 -0.15737948 0.041591227 -0.1632373 -0.19777322 -0.15218924 0.2521305 0.5942377 0.027552716 0.024480034 -0.12787011 -0.4170228 0.11983055 -0.14975646 0.12300704 -0.18052998 0.2797373 0.45867604 -0.40031698 -0.09153137 0.16078746 -0.06718094 -0.40485114 0.1358203 0.07550208 -0.1857719 -0.31425914 -0.50784427 -0.32460958 -0.218465 0.055271536 -0.3819247 -0.12549968 0.16776785 0.016894849 -0.011175124 -0.28465766 -0.02507778 0.12091874 0.30818352 -0.17164487 0.029667797 -0.53026026 -0.2373065 0.005569346 0.55979323 -0.29464543 0.10116368 -0.40210822 0.076003164 -0.15942752 0.099977 -0.5527012 -0.008164308 -0.0392515 0.4993672 -0.286283 -0.10393107 0.06374247 0.18216354 -0.17809048 0.19928735 -0.101286374 0.3143135 -0.055094644 0.22037771 0.23464398 0.16108723 -0.28469068 -0.17620054 -0.3082998 -0.0001548886 -0.01938615 -0.28481206 0.13167241 0.40908003 0.0036714703 0.18179694 0.05562181 -0.44532257 -0.26232156 -0.32013962 -0.07178375 0.10091325 -0.08452754 -0.24281931 -0.07385996 -0.28428268 -0.0966926 -0.032450628 0.20807987 -0.3176069 -0.03997608 0.17188239 -0.294669 -0.2808621 -0.40560225 0.14745621 -0.21341906 0.027981956 -0.22327211 -0.0191213 0.02332132 0.3419587 -0.03955027 0.10458406 0.068908334 0.07901513 0.016330572 -0.1517112 -0.20255254 0.2860799 0.46541345 0.099032134 -0.10307665 0.2626258 0.012628323 0.2570779 -0.07743902 0.010969671 -0.02159247 -0.109701194 0.03190874 -0.0856937 -0.19398223 -0.046124537 0.08841788 0.019724932 -0.038551223 -0.0281704 -0.31908444 -0.14148115 0.4039004 0.20478046 0.058093343 -0.42704454 0.08246885 -0.22039603 -0.20884372 -0.01592792 -0.14828588 -0.24867536 -0.0931933 -0.34529737 -0.053086374 0.08243786 -0.28516182 -0.16170587 -0.13550645 -0.13787194 0.01834797 0.01172141 0.2864791 -0.13307606 0.16215897 -0.16580006 0.25533795 -0.25991252 -0.4664858 -0.0011697637 -0.42642045 0.06552259 0.11620736 0.0018306928 0.15127558 0.18739204 -0.5872092 0.14801404 0.044845287 0.066738755 -0.30265516 -0.27940336 -0.16496989 0.007997538 0.04659134 0.28867254 0.0757444 -0.22967796 -0.19688234 0.12321945 -0.23438363 -0.077979006 -0.40315744 0.09178242 0.37282154 -0.24324182 -0.3314398 -0.17351902 0.24771994 -0.25867498 0.37830687 0.11841389
冷饮店 0.19603036 -0.55689174 -0.10804411 0.11630656 0.1669411 -0.15513764 0.02681732 0.29084152 0.027124442 0.13558744 0.026787447 -0.15942763 0.091813505 -0.04733923 0.10593441 -0.076814435 0.14483105 -0.07112286 0.074931644 -0.11889515 -0.08080412 -0.38260072 -0.0499461 -0.24878007 0.26392224 0.10442096 -0.19161871 0.10300494 0.09933627 -0.035705518 -0.0066614533 0.18628229 0.12773198 -0.4002685 -0.1325009 0.09270194 -0.2607553 0.112296164 0.0815936 0.08664135 -0.10349578 0.28342578 0.38880527 0.21113996 -0.24569651 0.09963266 -0.3260729 -0.0942563 -0.1881932 0.10486016 -0.36404514 -0.029487927 0.20043577 0.092269056 0.14034131 0.047801957 0.05077674 0.013673187 0.084428 0.29870987 0.047116745 -0.059152257 0.053118255 0.01065636 -0.2680108 -0.084057316 -0.0033518453 0.04038072 0.10452949 0.28121677 -0.025128441 -0.034449857 -0.023247804 0.065955885 -0.06403265 0.054265775 0.113565154 0.08406186 -0.06619286 -0.20161287 0.26837468 -0.3093222 -0.2524288 0.20265274 -0.13951823 -0.11483311 -0.108431734 -0.23341733 -0.023963427 -0.18428917 0.07073818 0.17927438 -0.03364593 0.2770392 0.008546092 0.029020831 -0.073015004 0.08598542 0.09894496 0.056397025 -0.23642202 0.0855307 -0.104547806 -0.105125666 -0.017826308 0.008559942 0.17019057 -0.20907608 -0.21216267 0.13212748 -0.15919799 -0.10480204 0.27456823 -0.0036419632 -0.056671653 -0.0069176783 -0.111121714 0.19407462 -0.26460096 -0.19555588 0.12340887 0.27258012 -0.10614992 0.24864766 0.24997006 -0.16968337 -0.12914859 0.20934094 -0.07039262 0.38011542 -0.1893517 -0.28689826 -0.19969904 -0.026854193 -0.11555307 0.21054925 0.25517792 -0.18683684 -0.122493654 -0.11207484 0.34300798 0.1173795 0.02983669 -0.09667178 -0.1060795 -0.094992235 -0.10755461 -0.2090192 0.3107704 0.08281814 -0.10887208 0.053067885 -0.1342393 -0.06846352 -0.47138518 -0.114418484 0.1494427 -0.22258483 -0.08295442 0.05956027 -0.019534618 -0.0066293897 0.15054063 -0.108708166 0.20475952 0.035206337 -0.13715395 0.1522986 0.17378478 -0.0020822496 0.1455567 0.1838919 -0.016942041 0.13286678 -0.2482786 0.115545034 -0.052968036 0.16888483 -0.1263401 0.010506742 -0.015618198 -0.12324264 -0.0013244466 -0.05150012 -0.028782908 -0.27665022 0.15766138 -0.06129614 -0.11687983 -0.13604558 -0.1187331 0.017425805 -0.21428381 0.11489573 0.25262028 -0.13694437 0.40330255 -0.05735168 0.12722081 0.041756157
花卉市场 -0.12508114 -0.061002377 -0.28789172 0.47297794 0.011288303 0.07612872 0.11920239 0.28749457 0.25324777 -0.14045548 0.04146826 0.0011996452 0.07420278 -0.2525263 -0.09166748 0.2332559 0.075249285 -0.1404526 0.022388354 -0.3135648 -0.05983544 -0.41827068 0.052126165 -0.078017026 0.30364004 0.20905401 -0.300005 -0.26239482 -0.14733015 -0.13642697 -0.1648348 0.21492594 -0.11267602 -0.42720935 -0.035572138 -0.18927667 -0.22967778 0.22220604 0.10760906 -0.032238137 -0.22224355 -0.14119035 -0.029319644 0.11524545 0.008826183 -0.114236675 -0.1493882 0.068181135 0.023861835 -0.08567818 -0.14959866 0.045945745 0.137276 0.19211468 0.043218788 -0.16104689 -0.14865942 0.023852458 -0.0014671593 0.018542951 0.2018483 0.02513558 0.080956005 0.103063636 -0.30455786 0.16160445 -0.1161295 0.18589817 0.24082918 -0.13897873 0.006138695 -0.18470882 -0.011569238 0.031328917 -0.11760687 0.11772224 0.072130285 0.024258692 0.02274959 0.1662481 -0.16908568 -0.075985454 -0.18602222 0.1424182 -0.147365 -0.18796949 0.02441574 -0.13560818 0.10099849 -0.26295212 -0.13251354 0.22583978 -0.047202 0.1811294 0.17843705 0.04615967 -0.12498119 -0.07396276 0.15143076 -0.06146593 -0.14750813 0.0048405817 -0.05628031 -0.4662143 0.07159103 -0.1095015 0.11485351 -0.2532554 -0.38930312 0.085809626 -0.13835312 0.005641153 -0.008862233 -0.024352517 0.07003848 -0.086453825 0.094606034 0.065159865 -0.32080445 0.16300485 0.15489744 0.09475866 -0.019408775 0.17399721 0.053004395 0.024308186 0.10883736 -0.030727994 -0.011559475 0.08179162 -0.01982004 -0.0811642 -0.18589239 0.2851209 0.01047065 0.14990148 0.09473559 -0.33161423 -0.0068246704 -0.10984997 0.21125044 0.099081665 -0.0549861 0.25234136 0.08937134 -0.08860859 -0.03739229 -0.080648996 0.0076449863 -0.1636303 -0.05945487 -0.06753452 -0.1790061 -0.21285671 0.059808817 0.11169909 -0.08544371 0.10750857 0.055678595 0.24363188 -0.011201931 0.46113425 0.16662271 -0.21998456 0.25201994 0.25906834 -0.017153366 0.15797558 -0.07608329 -0.033598904 -0.26147577 0.08967129 -0.1924643 -0.14327088 -0.20889772 -0.054583095 -0.1216886 0.26069725 0.24066278 -0.020257093 -0.029558796 0.019872468 0.08875953 -0.26459914 -0.04384742 -0.010671109 0.27173805 0.2417022 -0.016075492 -0.16629441 0.10501539 0.14214459 -0.07073828 0.10501646 -0.1033201 0.0959844 0.099081084 -0.40884826 0.5011996 0.15436542
